{"learner":{"attributes":{"scikit_learn":"{\"_estimator_type\": \"classifier\"}"},"feature_names":["co","no2","o3","pm10","pm25","so2","clouds","precipitation","pressure","relative_humidity","temperature","uv_index","wind_speed","hour","month","season","is_weekend","is_rush_hour","day_of_week"],"feature_types":["float","float","float","float","float","float","int","float","int","int","float","float","float","int","int","int","int","int","int"],"gradient_booster":{"model":{"cats":{"enc":[],"feature_segments":[],"sorted_idx":[]},"gbtree_model_param":{"num_parallel_tree":"1","num_trees":"1800"},"iteration_indptr":[0,6,12,18,24,30,36,42,48,54,60,66,72,78,84,90,96,102,108,114,120,126,132,138,144,150,156,162,168,174,180,186,192,198,204,210,216,222,228,234,240,246,252,258,264,270,276,282,288,294,300,306,312,318,324,330,336,342,348,354,360,366,372,378,384,390,396,402,408,414,420,426,432,438,444,450,456,462,468,474,480,486,492,498,504,510,516,522,528,534,540,546,552,558,564,570,576,582,588,594,600,606,612,618,624,630,636,642,648,654,660,666,672,678,684,690,696,702,708,714,720,726,732,738,744,750,756,762,768,774,780,786,792,798,804,810,816,822,828,834,840,846,852,858,864,870,876,882,888,894,900,906,912,918,924,930,936,942,948,954,960,966,972,978,984,990,996,1002,1008,1014,1020,1026,1032,1038,1044,1050,1056,1062,1068,1074,1080,1086,1092,1098,1104,1110,1116,1122,1128,1134,1140,1146,1152,1158,1164,1170,1176,1182,1188,1194,1200,1206,1212,1218,1224,1230,1236,1242,1248,1254,1260,1266,1272,1278,1284,1290,1296,1302,1308,1314,1320,1326,1332,1338,1344,1350,1356,1362,1368,1374,1380,1386,1392,1398,1404,1410,1416,1422,1428,1434,1440,1446,1452,1458,1464,1470,1476,1482,1488,1494,1500,1506,1512,1518,1524,1530,1536,1542,1548,1554,1560,1566,1572,1578,1584,1590,1596,1602,1608,1614,1620,1626,1632,1638,1644,1650,1656,1662,1668,1674,1680,1686,1692,1698,1704,1710,1716,1722,1728,1734,1740,1746,1752,1758,1764,1770,1776,1782,1788,1794,1800],"tree_info":[0,1,2,3,4,5,0,1,2,3,4,5,0,1,2,3,4,5,0,1,2,3,4,5,0,1,2,3,4,5,0,1,2,3,4,5,0,1,2,3,4,5,0,1,2,3,4,5,0,1,2,3,4,5,0,1,2,3,4,5,0,1,2,3,4,5,0,1,2,3,4,5,0,1,2,3,4,5,0,1,2,3,4,5,0,1,2,3,4,5,0,1,2,3,4,5,0,1,2,3,4,5,0,1,2,3,4,5,0,1,2,3,4,5,0,1,2,3,4,5,0,1,2,3,4,5,0,1,2,3,4,5,0,1,2,3,4,5,0,1,2,3,4,5,0,1,2,3,4,5,0,1,2,3,4,5,0,1,2,3,4,5,0,1,2,3,4,5,0,1,2,3,4,5,0,1,2,3,4,5,0,1,2,3,4,5,0,1,2,3,4,5,0,1,2,3,4,5,0,1,2,3,4,5,0,1,2,3,4,5,0,1,2,3,4,5,0,1,2,3,4,5,0,1,2,3,4,5,0,1,2,3,4,5,0,1,2,3,4,5,0,1,2,3,4,5,0,1,2,3,4,5,0,1,2,3,4,5,0,1,2,3,4,5,0,1,2,3,4,5,0,1,2,3,4,5,0,1,2,3,4,5,0,1,2,3,4,5,0,1,2,3,4,5,0,1,2,3,4,5,0,1,2,3,4,5,0,1,2,3,4,5,0,1,2,3,4,5,0,1,2,3,4,5,0,1,2,3,4,5,0,1,2,3,4,5,0,1,2,3,4,5,0,1,2,3,4,5,0,1,2,3,4,5,0,1,2,3,4,5,0,1,2,3,4,5,0,1,2,3,4,5,0,1,2,3,4,5,0,1,2,3,4,5,0,1,2,3,4,5,0,1,2,3,4,5,0,1,2,3,4,5,0,1,2,3,4,5,0,1,2,3,4,5,0,1,2,3,4,5,0,1,2,3,4,5,0,1,2,3,4,5,0,1,2,3,4,5,0,1,2,3,4,5,0,1,2,3,4,5,0,1,2,3,4,5,0,1,2,3,4,5,0,1,2,3,4,5,0,1,2,3,4,5,0,1,2,3,4,5,0,1,2,3,4,5,0,1,2,3,4,5,0,1,2,3,4,5,0,1,2,3,4,5,0,1,2,3,4,5,0,1,2,3,4,5,0,1,2,3,4,5,0,1,2,3,4,5,0,1,2,3,4,5,0,1,2,3,4,5,0,1,2,3,4,5,0,1,2,3,4,5,0,1,2,3,4,5,0,1,2,3,4,5,0,1,2,3,4,5,0,1,2,3,4,5,0,1,2,3,4,5,0,1,2,3,4,5,0,1,2,3,4,5,0,1,2,3,4,5,0,1,2,3,4,5,0,1,2,3,4,5,0,1,2,3,4,5,0,1,2,3,4,5,0,1,2,3,4,5,0,1,2,3,4,5,0,1,2,3,4,5,0,1,2,3,4,5,0,1,2,3,4,5,0,1,2,3,4,5,0,1,2,3,4,5,0,1,2,3,4,5,0,1,2,3,4,5,0,1,2,3,4,5,0,1,2,3,4,5,0,1,2,3,4,5,0,1,2,3,4,5,0,1,2,3,4,5,0,1,2,3,4,5,0,1,2,3,4,5,0,1,2,3,4,5,0,1,2,3,4,5,0,1,2,3,4,5,0,1,2,3,4,5,0,1,2,3,4,5,0,1,2,3,4,5,0,1,2,3,4,5,0,1,2,3,4,5,0,1,2,3,4,5,0,1,2,3,4,5,0,1,2,3,4,5,0,1,2,3,4,5,0,1,2,3,4,5,0,1,2,3,4,5,0,1,2,3,4,5,0,1,2,3,4,5,0,1,2,3,4,5,0,1,2,3,4,5,0,1,2,3,4,5,0,1,2,3,4,5,0,1,2,3,4,5,0,1,2,3,4,5,0,1,2,3,4,5,0,1,2,3,4,5,0,1,2,3,4,5,0,1,2,3,4,5,0,1,2,3,4,5,0,1,2,3,4,5,0,1,2,3,4,5,0,1,2,3,4,5,0,1,2,3,4,5,0,1,2,3,4,5,0,1,2,3,4,5,0,1,2,3,4,5,0,1,2,3,4,5,0,1,2,3,4,5,0,1,2,3,4,5,0,1,2,3,4,5,0,1,2,3,4,5,0,1,2,3,4,5,0,1,2,3,4,5,0,1,2,3,4,5,0,1,2,3,4,5,0,1,2,3,4,5,0,1,2,3,4,5,0,1,2,3,4,5,0,1,2,3,4,5,0,1,2,3,4,5,0,1,2,3,4,5,0,1,2,3,4,5,0,1,2,3,4,5,0,1,2,3,4,5,0,1,2,3,4,5,0,1,2,3,4,5,0,1,2,3,4,5,0,1,2,3,4,5,0,1,2,3,4,5,0,1,2,3,4,5,0,1,2,3,4,5,0,1,2,3,4,5,0,1,2,3,4,5,0,1,2,3,4,5,0,1,2,3,4,5,0,1,2,3,4,5,0,1,2,3,4,5,0,1,2,3,4,5,0,1,2,3,4,5,0,1,2,3,4,5,0,1,2,3,4,5,0,1,2,3,4,5,0,1,2,3,4,5,0,1,2,3,4,5,0,1,2,3,4,5,0,1,2,3,4,5,0,1,2,3,4,5,0,1,2,3,4,5,0,1,2,3,4,5,0,1,2,3,4,5,0,1,2,3,4,5,0,1,2,3,4,5,0,1,2,3,4,5,0,1,2,3,4,5,0,1,2,3,4,5,0,1,2,3,4,5,0,1,2,3,4,5,0,1,2,3,4,5,0,1,2,3,4,5,0,1,2,3,4,5,0,1,2,3,4,5,0,1,2,3,4,5,0,1,2,3,4,5,0,1,2,3,4,5,0,1,2,3,4,5,0,1,2,3,4,5,0,1,2,3,4,5,0,1,2,3,4,5,0,1,2,3,4,5,0,1,2,3,4,5,0,1,2,3,4,5,0,1,2,3,4,5,0,1,2,3,4,5,0,1,2,3,4,5,0,1,2,3,4,5,0,1,2,3,4,5,0,1,2,3,4,5,0,1,2,3,4,5,0,1,2,3,4,5,0,1,2,3,4,5,0,1,2,3,4,5,0,1,2,3,4,5,0,1,2,3,4,5,0,1,2,3,4,5,0,1,2,3,4,5,0,1,2,3,4,5,0,1,2,3,4,5,0,1,2,3,4,5,0,1,2,3,4,5,0,1,2,3,4,5,0,1,2,3,4,5,0,1,2,3,4,5,0,1,2,3,4,5,0,1,2,3,4,5,0,1,2,3,4,5,0,1,2,3,4,5,0,1,2,3,4,5,0,1,2,3,4,5,0,1,2,3,4,5,0,1,2,3,4,5,0,1,2,3,4,5,0,1,2,3,4,5,0,1,2,3,4,5,0,1,2,3,4,5,0,1,2,3,4,5,0,1,2,3,4,5,0,1,2,3,4,5,0,1,2,3,4,5,0,1,2,3,4,5,0,1,2,3,4,5,0,1,2,3,4,5,0,1,2,3,4,5,0,1,2,3,4,5,0,1,2,3,4,5,0,1,2,3,4,5,0,1,2,3,4,5,0,1,2,3,4,5,0,1,2,3,4,5,0,1,2,3,4,5,0,1,2,3,4,5,0,1,2,3,4,5,0,1,2,3,4,5,0,1,2,3,4,5,0,1,2,3,4,5,0,1,2,3,4,5,0,1,2,3,4,5,0,1,2,3,4,5,0,1,2,3,4,5,0,1,2,3,4,5,0,1,2,3,4,5,0,1,2,3,4,5,0,1,2,3,4,5,0,1,2,3,4,5,0,1,2,3,4,5,0,1,2,3,4,5,0,1,2,3,4,5,0,1,2,3,4,5,0,1,2,3,4,5,0,1,2,3,4,5,0,1,2,3,4,5,0,1,2,3,4,5,0,1,2,3,4,5,0,1,2,3,4,5,0,1,2,3,4,5,0,1,2,3,4,5,0,1,2,3,4,5,0,1,2,3,4,5,0,1,2,3,4,5,0,1,2,3,4,5,0,1,2,3,4,5,0,1,2,3,4,5,0,1,2,3,4,5],"trees":[{"base_weights":[2.2472404E-6,2.9432118E0,-5.9989955E-2,2.961696E0,-5.1832207E-2,2.989295E0,1.5163411E0,2.9930365E-1,-3.3237435E-2,-3.865822E-2,1.6829381E0,-3.327786E-2,1.8135589E0,6.277689E-2,1.9706436E-1],"categories":[],"categories_nodes":[],"categories_segments":[],"categories_sizes":[],"default_left":[0,0,0,0,0,0,0,0,0,0,0,0,0,0,0],"id":0,"left_children":[1,3,-1,5,-1,7,9,-1,-1,-1,11,-1,13,-1,-1],"loss_changes":[1.2751391E4,7.977344E1,0E0,4.3992188E1,0E0,1.5816406E1,8.519741E0,0E0,0E0,0E0,6.6621094E0,0E0,2.8171234E0,0E0,0E0],"parents":[2147483647,0,0,1,1,3,3,5,5,6,6,10,10,12,12],"right_children":[2,4,-1,6,-1,8,10,-1,-1,-1,12,-1,14,-1,-1],"split_conditions":[1.273E1,1.113E2,-5.9989955E-2,1.214E1,-5.1832207E-2,5.38E1,1.001E3,2.9930365E-1,-3.3237435E-2,-3.865822E-2,2.189E2,-3.327786E-2,1.55E1,6.277689E-2,1.9706436E-1],"split_indices":[4,2,0,4,0,3,8,0,0,0,0,0,3,0,0],"split_type":[0,0,0,0,0,0,0,0,0,0,0,0,0,0,0],"sum_hessian":[7.219979E3,1.2217891E3,5.99819E3,1.2154431E3,6.3459625E0,1.191621E3,2.3822124E1,1.1903792E3,1.2419397E0,1.8113912E0,2.2010733E1,1.2453315E0,2.0765402E1,3.0135188E0,1.7751883E1],"tree_param":{"num_deleted":"0","num_feature":"19","num_nodes":"15","size_leaf_vector":"1"}},{"base_weights":[-1.1927389E-6,-5.998988E-2,2.7253513E0,-5.830287E-2,2.8154044E0,-5.6610145E-2,2.8609662E0,-5.3050887E-2,2.882202E0,-4.8160635E-2,2.8936238E0,-4.4467293E-2,2.9017076E-1],"categories":[],"categories_nodes":[],"categories_segments":[],"categories_sizes":[],"default_left":[0,0,0,0,0,0,0,0,0,0,0,0,0],"id":1,"left_children":[1,-1,3,-1,5,-1,7,-1,9,-1,11,-1,-1],"loss_changes":[1.1807503E4,0E0,3.8981543E2,0E0,1.9705957E2,0E0,9.168652E1,0E0,4.919922E1,0E0,3.475586E1,0E0,0E0],"parents":[2147483647,0,0,2,2,4,4,6,6,8,8,10,10],"right_children":[2,-1,4,-1,6,-1,8,-1,10,-1,12,-1,-1],"split_conditions":[3.03E2,-5.998988E-2,1.014E3,-5.830287E-2,1E0,-5.6610145E-2,1.53E1,-5.3050887E-2,1.93E1,-4.8160635E-2,1E0,-4.4467293E-2,2.9017076E-1],"split_indices":[3,0,8,0,15,0,5,0,1,0,13,0,0],"split_type":[0,0,0,0,0,0,0,0,0,0,0,0,0],"sum_hessian":[7.220012E3,5.9181123E3,1.3018999E3,3.435326E1,1.2675466E3,1.6699736E1,1.2508469E3,7.6341653E0,1.2432128E3,4.0678296E0,1.2391449E3,2.862812E0,1.2362821E3],"tree_param":{"num_deleted":"0","num_feature":"19","num_nodes":"13","size_leaf_vector":"1"}},{"base_weights":[3.7255755E-5,1.1574696E0,-5.9986647E-2,-5.511701E-1,2.836605E0,-5.676685E-1,2.255869E0,2.9428947E0,-5.8432978E-2,-5.953884E-1,7.87051E-1,2.5255272E-1,3.001198E-2,2.9688194E0,-3.447196E-1,-5.96751E-1,2.4005828E-2,1.691236E0,4.978259E-1,2.9867556E0,5.542843E-1,-5.3080846E-2,3.913304E-2,-5.9743274E-2,3.1227672E-3,2.2996981E-1,-1.6481515E-2,-2.0395393E-2,8.597949E-2,2.9960772E-1,1.3184093E-1,7.867467E-2,-8.900027E-3],"categories":[],"categories_nodes":[],"categories_segments":[],"categories_sizes":[],"default_left":[0,0,0,0,0,0,0,0,0,0,0,0,0,0,0,0,0,0,0,0,0,0,0,0,0,0,0,0,0,0,0,0,0],"id":2,"left_children":[1,3,-1,5,7,9,11,13,-1,15,17,-1,-1,19,21,23,-1,25,27,29,31,-1,-1,-1,-1,-1,-1,-1,-1,-1,-1,-1,-1],"loss_changes":[5.0143315E3,7.074486E3,0E0,5.7907257E1,4.5387793E2,4.6147217E1,3.116024E0,1.038291E2,0E0,1.5007629E0,5.6490755E0,0E0,0E0,5.017871E1,1.6230814E0,5.2856445E-1,0E0,6.7013607E0,5.31239E0,1.4522461E1,1.5733769E0,0E0,0E0,0E0,0E0,0E0,0E0,0E0,0E0,0E0,0E0,0E0,0E0],"parents":[2147483647,0,0,1,1,3,3,4,4,5,5,6,6,7,7,9,9,10,10,13,13,14,14,15,15,17,17,18,18,19,19,20,20],"right_children":[2,4,-1,6,8,10,12,14,-1,16,18,-1,-1,20,22,24,-1,26,28,30,32,-1,-1,-1,-1,-1,-1,-1,-1,-1,-1,-1,-1],"split_conditions":[3.6E1,1.273E1,-5.9986647E-2,1.113E2,1.642E2,1.214E1,1.527E2,1.55E2,-5.8432978E-2,1.09E2,4.193E2,2.5255272E-1,3.001198E-2,3.533E1,3.025E2,5.38E1,2.4005828E-2,2.76E1,7.639E2,1.58E2,5.25E1,-5.3080846E-2,3.913304E-2,-5.9743274E-2,3.1227672E-3,2.2996981E-1,-1.6481515E-2,-2.0395393E-2,8.597949E-2,2.9960772E-1,1.3184093E-1,7.867467E-2,-8.900027E-3],"split_indices":[4,4,0,2,2,4,2,3,0,2,0,0,0,4,3,3,0,1,0,2,3,0,0,0,0,0,0,0,0,0,0,0,0],"split_type":[0,0,0,0,0,0,0,0,0,0,0,0,0,0,0,0,0,0,0,0,0,0,0,0,0,0,0,0,0,0,0,0,0],"sum_hessian":[7.219641E3,2.4642593E3,4.755382E3,1.2217319E3,1.2425273E3,1.2153862E3,6.345666E0,1.2052205E3,3.730685E1,1.1915653E3,2.3821009E1,5.3207126E0,1.024953E0,1.1958872E3,9.333304E0,1.1899104E3,1.654898E0,4.598271E0,1.9222738E1,1.186834E3,9.053244E0,7.6724024E0,1.6609024E0,1.1886685E3,1.2418815E0,3.282993E0,1.315278E0,6.689597E0,1.2533141E1,1.1794481E3,7.3858514E0,6.4862914E0,2.5669522E0],"tree_param":{"num_deleted":"0","num_feature":"19","num_nodes":"33","size_leaf_vector":"1"}},{"base_weights":[2.0158901E-5,-5.918487E-1,5.9458506E-1,-5.9707046E-1,3.3549482E-1,2.9541895E0,-5.997452E-2,-5.990681E-1,-3.757212E-1,2.2135217E0,-5.5987354E-2,2.9750445E0,1.6588106E0,-5.9982706E-2,-3.7845534E-1,-5.809473E-2,1.1871151E0,4.9994033E-2,2.4796167E-1,2.9840848E-1,1.7406429E0,2.4271228E0,7.414022E-1,3.6481825E-1,-5.5200923E-2,5.943376E-3,1.6334252E-1,-1.8675615E-1,2.3664184E0,6.222856E-2,2.6851347E-1,-3.9370455E-2,1.0164999E0,8.597227E-2,-3.225374E-2,-3.532227E-2,8.149852E-3,5.188136E-2,2.5873467E-1,1.3103314E-1,-3.532227E-2],"categories":[],"categories_nodes":[],"categories_segments":[],"categories_sizes":[],"default_left":[0,0,0,0,0,0,0,0,0,0,0,0,0,0,0,0,0,0,0,0,0,0,0,0,0,0,0,0,0,0,0,0,0,0,0,0,0,0,0,0,0],"id":3,"left_children":[1,3,5,7,9,11,-1,13,15,17,-1,19,21,-1,23,-1,25,-1,-1,-1,27,29,31,33,-1,-1,-1,35,37,-1,-1,-1,39,-1,-1,-1,-1,-1,-1,-1,-1],"loss_changes":[2.5413857E3,1.7725464E1,1.0154704E4,1.3664551E0,3.6391613E1,2.777539E1,0E0,3.6987305E-1,1.1875159E1,1.9297752E0,0E0,8.089844E0,1.3316902E1,0E0,2.1275907E0,0E0,2.1056504E0,0E0,0E0,0E0,1.3775333E1,3.5593033E0,3.9020748E0,1.4436526E0,0E0,0E0,0E0,1.9116981E-1,2.0939598E0,0E0,0E0,0E0,4.2081747E0,0E0,0E0,0E0,0E0,0E0,0E0,0E0,0E0],"parents":[2147483647,0,0,1,1,2,2,3,3,4,4,5,5,7,7,8,8,9,9,11,11,12,12,14,14,16,16,20,20,21,21,22,22,23,23,27,27,28,28,32,32],"right_children":[2,4,6,8,10,12,-1,14,16,18,-1,20,22,-1,24,-1,26,-1,-1,-1,28,30,32,34,-1,-1,-1,36,38,-1,-1,-1,40,-1,-1,-1,-1,-1,-1,-1,-1],"split_conditions":[5.433E1,2.5E2,9.4E1,5.4E1,3.3E2,9.3E1,-5.997452E-2,2.11E2,6.05E2,2.64E2,-5.5987354E-2,3.42E2,1.171E2,-5.9982706E-2,2.2E1,-5.809473E-2,2.29E1,4.9994033E-2,2.4796167E-1,2.9840848E-1,5.5E0,1.138E2,1.188E2,1.77E1,-5.5200923E-2,5.943376E-3,1.6334252E-1,1.1989E3,5.7E1,6.222856E-2,2.6851347E-1,-3.9370455E-2,9.3E1,8.597227E-2,-3.225374E-2,-3.532227E-2,8.149852E-3,5.188136E-2,2.5873467E-1,1.3103314E-1,-3.532227E-2],"split_indices":[4,3,4,4,3,4,0,2,0,3,0,3,3,0,4,0,10,0,0,0,5,3,3,1,0,0,0,0,4,0,0,0,9,0,0,0,0,0,0,0,0],"split_type":[0,0,0,0,0,0,0,0,0,0,0,0,0,0,0,0,0,0,0,0,0,0,0,0,0,0,0,0,0,0,0,0,0,0,0,0,0,0,0,0,0],"sum_hessian":[7.219806E3,3.6181086E3,3.6016975E3,3.5982036E3,1.9905012E1,1.2098861E3,2.3918113E3,3.564329E3,3.3874634E1,5.9508877E0,1.39541235E1,1.1894402E3,2.0446045E1,3.550397E3,1.3932071E1,3.0498016E1,3.376617E0,1.1868286E0,4.764059E0,1.1793854E3,1.0054787E1,1.0231622E1,1.0214422E1,2.4287019E0,1.1503368E1,1.278763E0,2.0978541E0,2.6363487E0,7.418438E0,1.7064633E0,8.525159E0,1.908487E0,8.305935E0,1.2662314E0,1.1624705E0,1.4313653E0,1.2049835E0,1.1499388E0,6.268499E0,6.87457E0,1.4313653E0],"tree_param":{"num_deleted":"0","num_feature":"19","num_nodes":"41","size_leaf_vector":"1"}},{"base_weights":[-4.2605356E-5,5.9294677E-1,-5.957332E-1,-5.321913E-1,2.9641945E0,-3.735768E-1,-5.9983887E-2,-5.839434E-1,2.7188063E0,2.978313E0,1.8677238E0,-4.9361682E-1,1.5557433E-2,-5.93868E-1,1.6922424E0,7.8204614E-1,2.913478E-1,1.6528466E0,2.987797E-1,-2.6857606E-1,2.6357205E0,-8.434713E-2,-5.3484756E-1,-4.9070414E-2,2.3631363E-1,-5.9847392E-2,7.954202E-1,2.6093277E-1,-4.5272026E-2,1.0309887E0,-2.7560235E-3,5.8376063E-2,1.779732E-1,1.816911E-2,-4.5669936E-2,8.1836574E-2,2.7454636E-1,4.4358127E-2,-4.5034803E-2,-1.7865299E-1,-5.580685E-1,6.3319E-1,-2.2469877E-1,1.2917577E-1,2.9694531E-2,2.8555444E-2,1.2207444E-1,2.7525727E-2,-4.1577872E-2,-2.4505869E-2,-5.7054013E-2,9.027875E-2,-3.337882E-2,-3.7608974E-2,2.7525727E-2],"categories":[],"categories_nodes":[],"categories_segments":[],"categories_sizes":[],"default_left":[0,0,0,0,0,0,0,0,0,0,0,0,0,0,0,0,0,0,0,0,0,0,0,0,0,0,0,0,0,0,0,0,0,0,0,0,0,0,0,0,0,0,0,0,0,0,0,0,0,0,0,0,0,0,0],"id":4,"left_children":[1,3,5,7,9,11,-1,13,15,17,19,21,23,25,27,29,-1,31,-1,33,35,37,39,-1,41,-1,43,-1,-1,45,-1,-1,-1,-1,-1,-1,-1,-1,-1,47,49,51,53,-1,-1,-1,-1,-1,-1,-1,-1,-1,-1,-1,-1],"loss_changes":[2.5512314E3,9.658099E3,3.0621338E0,4.1472107E2,1.2470703E1,3.1854315E0,0E0,5.5625366E1,1.22951355E1,9.498047E0,2.9403671E1,8.327246E-1,2.016735E0,1.5885498E1,2.234038E1,1.0154393E0,0E0,3.714161E-1,0E0,5.516176E-1,3.3750916E-1,1.349118E0,2.89649E-1,0E0,2.4326787E0,0E0,1.6913724E0,0E0,0E0,1.8490648E-1,0E0,0E0,0E0,0E0,0E0,0E0,0E0,0E0,0E0,5.828505E-1,3.08609E-2,2.1233323E0,5.977145E-1,0E0,0E0,0E0,0E0,0E0,0E0,0E0,0E0,0E0,0E0,0E0,0E0],"parents":[2147483647,0,0,1,1,2,2,3,3,4,4,5,5,7,7,8,8,9,9,10,10,11,11,12,12,13,13,14,14,15,15,17,17,19,19,20,20,21,21,22,22,24,24,26,26,29,29,39,39,40,40,41,41,42,42],"right_children":[2,4,6,8,10,12,-1,14,16,18,20,22,24,26,28,30,-1,32,-1,34,36,38,40,-1,42,-1,44,-1,-1,46,-1,-1,-1,-1,-1,-1,-1,-1,-1,48,50,52,54,-1,-1,-1,-1,-1,-1,-1,-1,-1,-1,-1,-1],"split_conditions":[5.433E1,3.533E1,5.6E1,1.642E2,2.396E2,7.75E1,-5.9983887E-2,1.55E2,5.5E0,3.6E1,3.968525E2,1.59E1,5.5E1,1.58E2,2.64E2,3.72E1,2.913478E-1,2.25E1,2.987797E-1,2.82E2,2.67E1,1.44E0,6.13E1,-4.9070414E-2,1E0,-5.9847392E-2,1.226E2,2.6093277E-1,-4.5272026E-2,2.25E1,-2.7560235E-3,5.8376063E-2,1.779732E-1,1.816911E-2,-4.5669936E-2,8.1836574E-2,2.7454636E-1,4.4358127E-2,-4.5034803E-2,1.488E2,5E0,9.6E1,1.6E0,1.2917577E-1,2.9694531E-2,2.8555444E-2,1.2207444E-1,2.7525727E-2,-4.1577872E-2,-2.4505869E-2,-5.7054013E-2,9.027875E-2,-3.337882E-2,-3.7608974E-2,2.7525727E-2],"split_indices":[4,4,4,2,3,3,0,3,5,4,3,10,4,2,3,3,0,2,0,3,2,12,3,0,16,0,0,0,0,3,0,0,0,0,0,0,0,0,0,0,5,5,11,0,0,0,0,0,0,0,0,0,0,0,0],"split_type":[0,0,0,0,0,0,0,0,0,0,0,0,0,0,0,0,0,0,0,0,0,0,0,0,0,0,0,0,0,0,0,0,0,0,0,0,0,0,0,0,0,0,0,0,0,0,0,0,0,0,0,0,0,0,0],"sum_hessian":[7.22041E3,3.6184116E3,3.6019988E3,2.4545315E3,1.16388E3,6.7029076E1,3.5349697E3,2.416878E3,3.765353E1,1.1473896E3,1.649027E1,5.102148E1,1.6007593E1,2.4071216E3,9.756412E0,3.8972828E0,3.375625E1,9.396911E0,1.1379928E3,4.5325584E0,1.1957712E1,4.948342E0,4.6073135E1,4.489337E0,1.1518257E1,2.3997349E3,7.386638E0,6.6827087E0,3.073703E0,2.771608E0,1.1256748E0,1.5911558E0,7.805755E0,1.3457468E0,3.1868114E0,1.1625676E0,1.0795145E1,1.9392108E0,3.0091314E0,3.3518343E0,4.2721302E1,5.9889836E0,5.5292735E0,2.903835E0,4.4828033E0,1.0706255E0,1.7009825E0,1.0949858E0,2.2568486E0,2.4282E0,4.0293102E1,4.735179E0,1.2538047E0,4.4342875E0,1.0949858E0],"tree_param":{"num_deleted":"0","num_feature":"19","num_nodes":"55","size_leaf_vector":"1"}},{"base_weights":[-1.5926391E-5,-5.9416324E-1,1.1838555E0,-5.9772384E-1,1.1078454E-1,2.9552422E0,-3.9632976E-1,-5.9987705E-2,-2.1999595E-1,1.8691002E-1,-4.00249E-1,6.293173E-1,2.997236E-1,2.843115E-1,-4.45269E-1,-5.74431E-2,1.1487125E0,-5.6444455E-2,3.3237097E-1,-2.4073227E-1,1.4445869E0,2.6706734E-1,-4.6762246E-1,1.4838481E0,-3.0045211E-2,-3.9672762E-2,1.09810926E-1,8.909646E-2,-5.370145E-2,-3.0045211E-2,1.6454055E0,2.6321557E-1,-4.8758838E-1,1.7561485E-1,3.9306235E-2,2.1249595E-1,6.271317E-2,-4.983312E-2,2.377163E-1],"categories":[],"categories_nodes":[],"categories_segments":[],"categories_sizes":[],"default_left":[0,0,0,0,0,0,0,0,0,0,0,0,0,0,0,0,0,0,0,0,0,0,0,0,0,0,0,0,0,0,0,0,0,0,0,0,0,0,0],"id":5,"left_children":[1,3,5,7,9,11,13,-1,15,-1,17,19,-1,-1,21,-1,23,-1,25,27,29,-1,31,33,-1,-1,-1,-1,-1,-1,35,-1,37,-1,-1,-1,-1,-1,-1],"loss_changes":[5.0800195E3,1.2136597E1,6.75649E3,3.7596436E0,2.3221106E1,1.0926465E2,2.0362254E2,0E0,1.45826235E1,0E0,2.6177254E0,1.556067E1,0E0,0E0,8.889046E1,0E0,3.4747534E0,0E0,2.8520012E0,4.244607E0,4.4244766E0,0E0,7.865607E1,8.6422443E-1,0E0,0E0,0E0,0E0,0E0,0E0,3.6540203E0,0E0,3.943869E1,0E0,0E0,0E0,0E0,0E0,0E0],"parents":[2147483647,0,0,1,1,2,2,3,3,4,4,5,5,6,6,8,8,10,10,11,11,14,14,16,16,18,18,19,19,20,20,22,22,23,23,30,30,32,32],"right_children":[2,4,6,8,10,12,14,-1,16,-1,18,20,-1,-1,22,-1,24,-1,26,28,30,-1,32,34,-1,-1,-1,-1,-1,-1,36,-1,38,-1,-1,-1,-1,-1,-1],"split_conditions":[9.3E1,3.42E2,3.03E2,2.11E2,5.5E0,9.4E1,1E0,-5.9987705E-2,7.219E2,1.8691002E-1,1.774E2,1.171E2,2.997236E-1,2.843115E-1,1.53E1,-5.74431E-2,7.75E1,-5.6444455E-2,3E0,1.138E2,5.5E1,2.6706734E-1,1.014E3,2.1E1,-3.0045211E-2,-3.9672762E-2,1.09810926E-1,8.909646E-2,-5.370145E-2,-3.0045211E-2,3.67E1,2.6321557E-1,6.23E1,1.7561485E-1,3.9306235E-2,2.1249595E-1,6.271317E-2,-4.983312E-2,2.377163E-1],"split_indices":[4,3,3,2,5,4,15,0,0,0,0,3,0,0,5,0,3,0,18,3,9,0,8,1,0,0,0,0,0,0,1,0,2,0,0,0,0,0,0],"split_type":[0,0,0,0,0,0,0,0,0,0,0,0,0,0,0,0,0,0,0,0,0,0,0,0,0,0,0,0,0,0,0,0,0,0,0,0,0,0,0],"sum_hessian":[7.220153E3,4.80778E3,2.4123733E3,4.7837695E3,2.4010063E1,1.1369656E3,1.2754077E3,4.75607E3,2.7699741E1,4.808375E0,1.9201689E1,2.0447025E1,1.1165186E3,1.8131496E1,1.2572762E3,2.2463102E1,5.236639E0,1.5873629E1,3.3280606E0,1.0232114E1,1.0214912E1,8.111459E0,1.2491648E3,4.233631E0,1.003008E0,1.9516739E0,1.3763868E0,1.7065454E0,8.525568E0,1.003008E0,9.211905E0,7.15717E0,1.2420076E3,2.8997595E0,1.3338717E0,5.5237026E0,3.688202E0,1.2381904E3,3.8171573E0],"tree_param":{"num_deleted":"0","num_feature":"19","num_nodes":"39","size_leaf_vector":"1"}},{"base_weights":[-1.310546E-4,2.2106597E0,-5.9196334E-2,2.221933E0,-5.0998207E-2,2.2382226E0,1.2707429E0,2.2405231E-1,-3.2554895E-2,-3.8267847E-2,1.3987337E0,-3.2688063E-2,1.4964213E0,5.690233E-2,1.6070862E-1],"categories":[],"categories_nodes":[],"categories_segments":[],"categories_sizes":[],"default_left":[0,0,0,0,0,0,0,0,0,0,0,0,0,0,0],"id":6,"left_children":[1,3,-1,5,-1,7,9,-1,-1,-1,11,-1,13,-1,-1],"loss_changes":[9.408605E3,4.7705566E1,0E0,2.0590332E1,0E0,9.492676E0,6.4138145E0,0E0,0E0,0E0,4.871563E0,0E0,1.6291046E0,0E0,0E0],"parents":[2147483647,0,0,1,1,3,3,5,5,6,6,10,10,12,12],"right_children":[2,4,-1,6,-1,8,10,-1,-1,-1,12,-1,14,-1,-1],"split_conditions":[1.273E1,1.113E2,-5.9196334E-2,1.214E1,-5.0998207E-2,5.38E1,1.001E3,2.2405231E-1,-3.2554895E-2,-3.8267847E-2,2.189E2,-3.2688063E-2,1.55E1,5.690233E-2,1.6070862E-1],"split_indices":[4,2,0,4,0,3,8,0,0,0,0,0,3,0,0],"split_type":[0,0,0,0,0,0,0,0,0,0,0,0,0,0,0],"sum_hessian":[7.1888296E3,1.5174937E3,5.671336E3,1.5114143E3,6.079331E0,1.4846359E3,2.6778437E1,1.4834308E3,1.2050716E0,1.7810074E0,2.4997429E1,1.2135919E0,2.3783836E1,3.1902916E0,2.0593546E1],"tree_param":{"num_deleted":"0","num_feature":"19","num_nodes":"15","size_leaf_vector":"1"}},{"base_weights":[-1.5157219E-5,-5.9194554E-2,2.0769618E0,-5.7551987E-2,2.1329055E0,-5.5757463E-2,2.160874E0,-5.2195717E-2,2.1739311E0,2.1813223E0,-4.841648E-2,-4.467101E-2,2.1865693E-1],"categories":[],"categories_nodes":[],"categories_segments":[],"categories_sizes":[],"default_left":[0,0,0,0,0,0,0,0,0,0,0,0,0],"id":7,"left_children":[1,-1,3,-1,5,-1,7,-1,9,11,-1,-1,-1],"loss_changes":[8.840479E3,0E0,2.3788135E2,0E0,1.1875E2,0E0,5.529883E1,0E0,3.1290527E1,2.2140137E1,0E0,0E0,0E0],"parents":[2147483647,0,0,2,2,4,4,6,6,8,8,9,9],"right_children":[2,-1,4,-1,6,-1,8,-1,10,12,-1,-1,-1],"split_conditions":[3.03E2,-5.9194554E-2,1.014E3,-5.7551987E-2,1E0,-5.5757463E-2,1.53E1,-5.2195717E-2,6.23E1,1E0,-4.841648E-2,-4.467101E-2,2.1865693E-1],"split_indices":[3,0,8,0,15,0,5,0,2,13,0,0,0],"split_type":[0,0,0,0,0,0,0,0,0,0,0,0,0],"sum_hessian":[7.1887373E3,5.5949214E3,1.5938159E3,3.2729073E1,1.5610869E3,1.5866283E1,1.5452206E3,7.29533E0,1.5379253E3,1.5338396E3,4.0856714E0,2.8885782E0,1.530951E3],"tree_param":{"num_deleted":"0","num_feature":"19","num_nodes":"13","size_leaf_vector":"1"}},{"base_weights":[-1.9174733E-5,9.885863E-1,-5.919304E-2,-5.4128087E-1,2.1458097E0,-5.5836725E-1,1.8405155E0,2.2105687E0,-5.763569E-2,-5.8721393E-1,7.056668E-1,2.019223E-1,2.8949955E-2,2.2262132E0,-3.3273897E-1,-5.8864266E-1,2.3963002E-2,1.4502772E0,4.52082E-1,2.236888E0,5.0328064E-1,-5.2230097E-2,3.771549E-2,-5.893549E-2,3.1565526E-3,1.9127104E-1,-1.6182631E-2,-1.9905632E-2,7.661623E-2,2.2422922E-1,1.1308017E-1,7.09367E-2,-9.113612E-3],"categories":[],"categories_nodes":[],"categories_segments":[],"categories_sizes":[],"default_left":[0,0,0,0,0,0,0,0,0,0,0,0,0,0,0,0,0,0,0,0,0,0,0,0,0,0,0,0,0,0,0,0,0],"id":8,"left_children":[1,3,-1,5,7,9,11,13,-1,15,17,-1,-1,19,21,23,-1,25,27,29,31,-1,-1,-1,-1,-1,-1,-1,-1,-1,-1,-1,-1],"loss_changes":[4.2073125E3,4.768254E3,0E0,4.8252686E1,2.715625E2,4.2453644E1,1.7709141E0,6.0336914E1,0E0,1.4733887E0,4.287367E0,0E0,0E0,2.6257324E1,1.5463378E0,5.159607E-1,0E0,4.9296923E0,4.4432626E0,6.3061523E0,1.3457241E0,0E0,0E0,0E0,0E0,0E0,0E0,0E0,0E0,0E0,0E0,0E0,0E0],"parents":[2147483647,0,0,1,1,3,3,4,4,5,5,6,6,7,7,9,9,10,10,13,13,14,14,15,15,17,17,18,18,19,19,20,20],"right_children":[2,4,-1,6,8,10,12,14,-1,16,18,-1,-1,20,22,24,-1,26,28,30,32,-1,-1,-1,-1,-1,-1,-1,-1,-1,-1,-1,-1],"split_conditions":[3.6E1,1.273E1,-5.919304E-2,1.113E2,1.642E2,1.214E1,1.527E2,1.55E2,-5.763569E-2,1.09E2,4.193E2,2.019223E-1,2.8949955E-2,3.533E1,3.025E2,5.38E1,2.3963002E-2,2.76E1,7.639E2,1.58E2,5.25E1,-5.2230097E-2,3.771549E-2,-5.893549E-2,3.1565526E-3,1.9127104E-1,-1.6182631E-2,-1.9905632E-2,7.661623E-2,2.2422922E-1,1.1308017E-1,7.09367E-2,-9.113612E-3],"split_indices":[4,4,0,2,2,4,2,3,0,2,0,0,0,4,3,3,0,1,0,2,3,0,0,0,0,0,0,0,0,0,0,0,0],"split_type":[0,0,0,0,0,0,0,0,0,0,0,0,0,0,0,0,0,0,0,0,0,0,0,0,0,0,0,0,0,0,0,0,0],"sum_hessian":[7.187939E3,2.6916672E3,4.4962715E3,1.1594235E3,1.5322437E3,1.1519254E3,7.498058E0,1.4968229E3,3.5420753E1,1.1267473E3,2.5178171E1,6.4527082E0,1.0453496E0,1.4877958E3,9.027202E0,1.1250912E3,1.6560469E0,5.197489E0,1.9980682E1,1.478338E3,9.457653E0,7.333265E0,1.6939372E0,1.1238505E3,1.2407796E0,3.8940182E0,1.3034706E0,6.6208444E0,1.33598385E1,1.4701282E3,8.209943E0,6.87922E0,2.5784333E0],"tree_param":{"num_deleted":"0","num_feature":"19","num_nodes":"33","size_leaf_vector":"1"}},{"base_weights":[-5.9259464E-6,-5.835536E-1,5.305001E-1,-5.889925E-1,3.1457868E-1,2.2181454E0,-5.9181478E-2,-5.910857E-1,-3.603113E-1,1.8327646E0,-5.517439E-2,2.230172E0,1.3871323E0,-5.9187796E-2,-3.651936E-1,-5.723987E-2,1.1074264E0,4.653173E-2,2.0179121E-1,2.2352424E-1,1.453107E0,1.9349687E0,6.5837544E-1,3.4394673E-1,-5.426187E-2,6.4544873E-3,1.4877544E-1,-1.8395565E-1,1.9072435E0,5.7090577E-2,2.1010149E-1,8.9195395E-1,-3.879476E-2,7.9781435E-2,-3.1745568E-2,8.275647E-3,-3.5082243E-2,4.786433E-2,2.0537452E-1,1.5141936E-1,1.3918695E-2],"categories":[],"categories_nodes":[],"categories_segments":[],"categories_sizes":[],"default_left":[0,0,0,0,0,0,0,0,0,0,0,0,0,0,0,0,0,0,0,0,0,0,0,0,0,0,0,0,0,0,0,0,0,0,0,0,0,0,0,0,0],"id":9,"left_children":[1,3,5,7,9,11,-1,13,15,17,-1,19,21,-1,23,-1,25,-1,-1,-1,27,29,31,33,-1,-1,-1,35,37,-1,-1,39,-1,-1,-1,-1,-1,-1,-1,-1,-1],"loss_changes":[2.2258044E3,1.6909668E1,7.134545E3,1.4161377E0,2.897392E1,1.1942383E1,0E0,3.8720703E-1,1.1041116E1,1.0752277E0,0E0,2.5874023E0,8.350571E0,0E0,1.9975318E0,0E0,1.7133584E0,0E0,0E0,0E0,9.614819E0,1.8007164E0,3.2448506E0,1.3016624E0,0E0,0E0,0E0,1.900571E-1,1.0769844E0,0E0,0E0,4.4730415E0,0E0,0E0,0E0,0E0,0E0,0E0,0E0,0E0,0E0],"parents":[2147483647,0,0,1,1,2,2,3,3,4,4,5,5,7,7,8,8,9,9,11,11,12,12,14,14,16,16,20,20,21,21,22,22,23,23,27,27,28,28,31,31],"right_children":[2,4,6,8,10,12,-1,14,16,18,-1,20,22,-1,24,-1,26,-1,-1,-1,28,30,32,34,-1,-1,-1,36,38,-1,-1,40,-1,-1,-1,-1,-1,-1,-1,-1,-1],"split_conditions":[5.433E1,2.5E2,9.4E1,5.4E1,3.3E2,9.3E1,-5.9181478E-2,2.11E2,6.05E2,2.64E2,-5.517439E-2,3.42E2,1.171E2,-5.9187796E-2,2.2E1,-5.723987E-2,2.29E1,4.653173E-2,2.0179121E-1,2.2352424E-1,5.5E0,1.138E2,9.3E1,1.77E1,-5.426187E-2,6.4544873E-3,1.4877544E-1,3.1E1,5.7E1,5.7090577E-2,2.1010149E-1,7E0,-3.879476E-2,7.9781435E-2,-3.1745568E-2,8.275647E-3,-3.5082243E-2,4.786433E-2,2.0537452E-1,1.5141936E-1,1.3918695E-2],"split_indices":[4,3,4,4,3,4,0,2,0,3,0,3,3,0,4,0,10,0,0,0,5,3,9,1,0,0,0,1,4,0,0,14,0,0,0,0,0,0,0,0,0],"split_type":[0,0,0,0,0,0,0,0,0,0,0,0,0,0,0,0,0,0,0,0,0,0,0,0,0,0,0,0,0,0,0,0,0,0,0,0,0,0,0,0,0],"sum_hessian":[7.187858E3,3.4227695E3,3.7650886E3,3.402509E3,2.0260553E1,1.5034089E3,2.2616797E3,3.3700762E3,3.2432716E1,6.955619E0,1.33049345E1,1.4803018E3,2.3107101E1,3.3566833E3,1.3392866E1,2.8870897E1,3.5618181E0,1.2484128E0,5.7072062E0,1.4688411E3,1.1460779E1,1.2246068E1,1.0861034E1,2.492437E0,1.0900429E1,1.2644179E0,2.2974002E0,2.6180854E0,8.842693E0,1.810567E0,1.0435501E1,8.999536E0,1.861499E0,1.3558078E0,1.1366292E0,1.2015847E0,1.4165007E0,1.2193599E0,7.6233335E0,4.3731623E0,4.6263733E0],"tree_param":{"num_deleted":"0","num_feature":"19","num_nodes":"41","size_leaf_vector":"1"}},{"base_weights":[-2.1978649E-5,5.2949286E-1,-5.876186E-1,-5.218907E-1,2.2241075E0,-3.5915658E-1,-5.9191342E-2,-5.8007437E-1,1.908958E0,2.2321026E0,1.53921E0,-4.8181498E-1,2.44946E-2,-5.9044927E-2,1.4175003E0,7.181615E-1,2.0919094E0,1.3922334E0,2.2374208E-1,-2.6182964E-1,2.0742688E0,-7.245256E-2,-5.2445346E-1,-4.810035E-2,2.358659E-1,2.0664738E-1,-4.435141E-2,9.636139E-1,-2.6315792E-2,7.111219E-1,2.2084247E-1,2.9298246E-2,1.4711651E-1,1.6822098E-2,-4.488069E-2,5.9146203E-2,2.1410492E-1,4.3225702E-2,-4.40287E-2,-1.6648197E-1,-5.4854244E-1,5.989344E-1,-2.105507E-1,1.1957313E-1,1.1702315E-2,-3.153772E-2,2.7383476E-2,9.336796E-2,-3.408023E-3,2.8473947E-2,-4.0834628E-2,-2.3378128E-2,-5.6147505E-2,8.408135E-2,-3.251931E-2,2.8410112E-2,-3.6530044E-2],"categories":[],"categories_nodes":[],"categories_segments":[],"categories_sizes":[],"default_left":[0,0,0,0,0,0,0,0,0,0,0,0,0,0,0,0,0,0,0,0,0,0,0,0,0,0,0,0,0,0,0,0,0,0,0,0,0,0,0,0,0,0,0,0,0,0,0,0,0,0,0,0,0,0,0,0,0],"id":10,"left_children":[1,3,5,7,9,11,-1,13,15,17,19,21,23,-1,25,27,29,31,-1,33,35,37,39,-1,41,-1,-1,43,45,47,-1,-1,-1,-1,-1,-1,-1,-1,-1,49,51,53,55,-1,-1,-1,-1,-1,-1,-1,-1,-1,-1,-1,-1,-1,-1],"loss_changes":[2.2371436E3,6.739476E3,3.1314697E0,3.3132446E2,4.4936523E0,3.0907927E0,0E0,4.8108704E1,1.0438507E1,3.2695312E0,1.975116E1,8.282213E-1,1.9087719E0,0E0,1.550551E1,1.6374788E0,5.989105E0,5.7899857E-1,0E0,5.1399016E-1,2.664261E-1,1.2748355E0,2.9486847E-1,0E0,2.155227E0,0E0,0E0,1.1690831E0,3.6060566E-1,8.8286257E-1,0E0,0E0,0E0,0E0,0E0,0E0,0E0,0E0,0E0,5.811267E-1,3.7775993E-2,1.8748322E0,5.902407E-1,0E0,0E0,0E0,0E0,0E0,0E0,0E0,0E0,0E0,0E0,0E0,0E0,0E0,0E0],"parents":[2147483647,0,0,1,1,2,2,3,3,4,4,5,5,7,7,8,8,9,9,10,10,11,11,12,12,14,14,15,15,16,16,17,17,19,19,20,20,21,21,22,22,24,24,27,27,28,28,29,29,39,39,40,40,41,41,42,42],"right_children":[2,4,6,8,10,12,-1,14,16,18,20,22,24,-1,26,28,30,32,-1,34,36,38,40,-1,42,-1,-1,44,46,48,-1,-1,-1,-1,-1,-1,-1,-1,-1,50,52,54,56,-1,-1,-1,-1,-1,-1,-1,-1,-1,-1,-1,-1,-1,-1],"split_conditions":[5.433E1,3.533E1,5.6E1,1.58E2,2.396E2,7.75E1,-5.9191342E-2,1.55E2,1.642E2,3.6E1,3.968525E2,1.59E1,5.5E1,-5.9044927E-2,2.64E2,3.8E1,5.5E0,1.167E2,2.2374208E-1,2.82E2,5E0,1.44E0,6.13E1,-4.810035E-2,1E0,2.0664738E-1,-4.435141E-2,6.3E1,3E0,3.72E1,2.2084247E-1,2.9298246E-2,1.4711651E-1,1.6822098E-2,-4.488069E-2,5.9146203E-2,2.1410492E-1,4.3225702E-2,-4.40287E-2,1.33E1,5E0,9.6E1,2E0,1.1957313E-1,1.1702315E-2,-3.153772E-2,2.7383476E-2,9.336796E-2,-3.408023E-3,2.8473947E-2,-4.0834628E-2,-2.3378128E-2,-5.6147505E-2,8.408135E-2,-3.251931E-2,2.8410112E-2,-3.6530044E-2],"split_indices":[4,4,4,2,3,3,0,3,2,4,3,10,4,0,3,3,5,0,0,3,5,12,3,0,16,0,0,6,18,3,0,0,0,0,0,0,0,0,0,1,5,5,14,0,0,0,0,0,0,0,0,0,0,0,0,0,0],"split_type":[0,0,0,0,0,0,0,0,0,0,0,0,0,0,0,0,0,0,0,0,0,0,0,0,0,0,0,0,0,0,0,0,0,0,0,0,0,0,0,0,0,0,0,0,0,0,0,0,0,0,0,0,0,0,0,0,0],"sum_hessian":[7.188124E3,3.7809795E3,3.4071445E3,2.333751E3,1.4472285E3,6.442965E1,3.3427148E3,2.2799407E3,5.381024E1,1.4282963E3,1.8932352E1,4.8627064E1,1.5802588E1,2.2688613E3,1.1079497E1,7.8222365E0,4.5988007E1,1.0640822E1,1.4176554E3,4.4532166E0,1.44791355E1,4.8417506E0,4.3785313E1,4.283321E0,1.1519268E1,8.132966E0,2.9465318E0,5.661352E0,2.1608841E0,4.131386E0,4.185662E1,1.028543E0,9.612279E0,1.3798509E0,3.0733657E0,1.0487725E0,1.3430364E1,1.9672818E0,2.8744688E0,3.2594688E0,4.0525845E1,6.164257E0,5.355011E0,4.1194725E0,1.5418798E0,1.074934E0,1.0859501E0,2.9865265E0,1.1448591E0,1.0755869E0,2.1838818E0,2.3522527E0,3.817359E1,4.956982E0,1.2072752E0,1.0768915E0,4.278119E0],"tree_param":{"num_deleted":"0","num_feature":"19","num_nodes":"57","size_leaf_vector":"1"}},{"base_weights":[1.934677E-4,-5.859628E-1,1.0098515E0,-5.896719E-1,1.0584692E-1,2.218189E0,-3.831331E-1,-5.9192277E-2,-2.056688E-1,1.5596445E-1,-3.8882446E-1,5.7101756E-1,2.2430323E-1,2.1757615E-1,-4.3250656E-1,-5.6591313E-2,1.0438371E0,-5.566142E-2,3.1852704E-1,-2.300492E-1,1.2366954E0,2.0975779E-1,-4.5523524E-1,1.4308339E0,1.4644645E-1,-3.8787533E-2,1.003443E-1,8.079538E-2,-5.2844543E-2,1.3571383E-1,1.4506106E0,2.0687254E-1,-4.756012E-1,1.6208658E-1,4.7050867E-2,-3.0882517E-2,5.3908434E-2,5.156659E-2,-3.1217685E-2,1.6440158E-1,2.6833251E-2,-4.8662074E-2,1.9511536E-1],"categories":[],"categories_nodes":[],"categories_segments":[],"categories_sizes":[],"default_left":[0,0,0,0,0,0,0,0,0,0,0,0,0,0,0,0,0,0,0,0,0,0,0,0,0,0,0,0,0,0,0,0,0,0,0,0,0,0,0,0,0,0,0],"id":11,"left_children":[1,3,5,7,9,11,13,-1,15,-1,17,19,-1,-1,21,-1,23,-1,25,27,29,-1,31,33,35,-1,-1,-1,-1,37,39,-1,41,-1,-1,-1,-1,-1,-1,-1,-1,-1,-1],"loss_changes":[4.2545146E3,1.1733643E1,4.445402E3,3.7886963E0,1.8659878E1,5.6587402E1,1.5601373E2,0E0,1.3147887E1,0E0,2.4953568E0,1.2204302E1,0E0,0E0,7.02495E1,0E0,2.0806708E0,0E0,2.5086975E0,3.8303437E0,2.7152996E0,0E0,6.2415604E1,5.7408333E-2,7.208117E-1,0E0,0E0,0E0,0E0,6.910507E-1,1.9026489E0,0E0,3.2674377E1,0E0,0E0,0E0,0E0,0E0,0E0,0E0,0E0,0E0,0E0],"parents":[2147483647,0,0,1,1,2,2,3,3,4,4,5,5,6,6,8,8,10,10,11,11,14,14,16,16,18,18,19,19,20,20,22,22,23,23,24,24,29,29,30,30,32,32],"right_children":[2,4,6,8,10,12,14,-1,16,-1,18,20,-1,-1,22,-1,24,-1,26,28,30,-1,32,34,36,-1,-1,-1,-1,38,40,-1,42,-1,-1,-1,-1,-1,-1,-1,-1,-1,-1],"split_conditions":[9.3E1,3.42E2,3.03E2,2.11E2,5.5E0,9.4E1,1E0,-5.9192277E-2,7.219E2,1.5596445E-1,1.774E2,1.171E2,2.2430323E-1,2.1757615E-1,1.014E3,-5.6591313E-2,2.1E1,-5.566142E-2,3E0,1.138E2,7.2E1,2.0975779E-1,1.53E1,7.6E1,2.96E1,-3.8787533E-2,1.003443E-1,8.079538E-2,-5.2844543E-2,2.76E2,2.7E1,2.0687254E-1,6.23E1,1.6208658E-1,4.7050867E-2,-3.0882517E-2,5.3908434E-2,5.156659E-2,-3.1217685E-2,1.6440158E-1,2.6833251E-2,-4.8662074E-2,1.9511536E-1],"split_indices":[4,3,3,2,5,4,15,0,0,0,0,3,0,0,8,0,1,0,18,3,9,0,5,6,10,0,0,0,0,0,10,0,2,0,0,0,0,0,0,0,0,0,0],"split_type":[0,0,0,0,0,0,0,0,0,0,0,0,0,0,0,0,0,0,0,0,0,0,0,0,0,0,0,0,0,0,0,0,0,0,0,0,0,0,0,0,0,0,0],"sum_hessian":[7.186899E3,4.547355E3,2.639544E3,4.523251E3,2.41038E1,1.4131348E3,1.2264093E3,4.496354E3,2.6896914E1,5.5728307E0,1.853097E1,2.135302E1,1.3917817E3,2.240018E1,1.204009E3,2.130234E1,5.5945745E0,1.5150292E1,3.3806765E0,9.98801E0,1.1365009E1,9.906983E0,1.194102E3,3.493553E0,2.1010215E0,1.8777299E0,1.5029466E0,1.8488691E0,8.139141E0,2.1148264E0,9.250182E0,8.753077E0,1.185349E3,2.342235E0,1.1513178E0,1.0717576E0,1.0292641E0,1.0623225E0,1.0525041E0,7.614072E0,1.6361108E0,1.1807867E3,4.562286E0],"tree_param":{"num_deleted":"0","num_feature":"19","num_nodes":"43","size_leaf_vector":"1"}},{"base_weights":[-2.5212235E-4,1.7900047E0,-5.846676E-2,1.7979368E0,-5.016766E-2,1.8093714E0,1.091955E0,1.8110096E0,-3.1873003E-2,-3.7843887E-2,1.1952568E0,1.8118927E-1,8.169467E-2,-3.2044273E-2,1.2722816E0,6.636314E-2,1.4151554E-1],"categories":[],"categories_nodes":[],"categories_segments":[],"categories_sizes":[],"default_left":[0,0,0,0,0,0,0,0,0,0,0,0,0,0,0,0,0],"id":12,"left_children":[1,3,-1,5,-1,7,9,11,-1,-1,13,-1,-1,-1,15,-1,-1],"loss_changes":[7.4304443E3,3.267383E1,0E0,1.2086426E1,0E0,6.548828E0,5.0527573E0,2.1484375E-2,0E0,0E0,3.7395668E0,0E0,0E0,0E0,1.4401207E0,0E0,0E0],"parents":[2147483647,0,0,1,1,3,3,5,5,6,6,7,7,10,10,14,14],"right_children":[2,4,-1,6,-1,8,10,12,-1,-1,14,-1,-1,-1,16,-1,-1],"split_conditions":[1.273E1,1.113E2,-5.846676E-2,1.214E1,-5.016766E-2,5.38E1,1.001E3,1.09E2,-3.1873003E-2,-3.7843887E-2,2.189E2,1.8118927E-1,8.169467E-2,-3.2044273E-2,6.6E1,6.636314E-2,1.4151554E-1],"split_indices":[4,2,0,4,0,3,8,2,0,0,0,0,0,0,6,0,0],"split_type":[0,0,0,0,0,0,0,0,0,0,0,0,0,0,0,0,0],"sum_hessian":[7.0999526E3,1.7468163E3,5.353136E3,1.7410056E3,5.8106647E0,1.7117186E3,2.9287024E1,1.7105507E3,1.1678476E0,1.747648E0,2.7539375E1,1.7082108E3,2.339875E0,1.1789836E0,2.6360392E1,6.0845876E0,2.0275805E1],"tree_param":{"num_deleted":"0","num_feature":"19","num_nodes":"17","size_leaf_vector":"1"}},{"base_weights":[-3.051064E-5,-5.8463465E-2,1.694177E0,-5.682711E-2,1.7337729E0,-5.493734E-2,1.7534182E0,-5.1354367E-2,1.7626244E0,1.7678702E0,-4.7555424E-2,-4.4858962E-2,1.7717873E-1],"categories":[],"categories_nodes":[],"categories_segments":[],"categories_sizes":[],"default_left":[0,0,0,0,0,0,0,0,0,0,0,0,0],"id":13,"left_children":[1,-1,3,-1,5,-1,7,-1,9,11,-1,-1,-1],"loss_changes":[7.035768E3,0E0,1.6423926E2,0E0,8.1308105E1,0E0,3.797412E1,0E0,2.161377E1,1.612207E1,0E0,0E0,0E0],"parents":[2147483647,0,0,2,2,4,4,6,6,8,8,9,9],"right_children":[2,-1,4,-1,6,-1,8,-1,10,12,-1,-1,-1],"split_conditions":[3.03E2,-5.8463465E-2,1.014E3,-5.682711E-2,1E0,-5.493734E-2,1.53E1,-5.1354367E-2,6.23E1,1E0,-4.7555424E-2,-4.4858962E-2,1.7717873E-1],"split_indices":[3,0,8,0,15,0,5,0,2,13,0,0,0],"split_type":[0,0,0,0,0,0,0,0,0,0,0,0,0],"sum_hessian":[7.101673E3,5.280303E3,1.8213694E3,3.109839E1,1.790271E3,1.5043012E1,1.775228E3,6.9584446E0,1.7682697E3,1.7643445E3,3.9251518E0,2.9123335E0,1.7614321E3],"tree_param":{"num_deleted":"0","num_feature":"19","num_nodes":"13","size_leaf_vector":"1"}},{"base_weights":[-7.0855116E-5,8.6884946E-1,-5.8463544E-2,-5.6172776E-1,1.7288114E0,-5.796578E-1,1.550696E0,1.7731905E0,-5.68812E-2,-5.8115953E-1,2.394958E-2,1.6812004E-1,2.7915005E-2,1.7838509E0,-3.2050136E-1,-5.8190543E-2,3.2431155E-3,6.455301E-1,1.8010718E0,-5.13783E-2,3.6392592E-2,-1.568428E-2,8.185769E-2,1.8085186E-1,4.603332E-2],"categories":[],"categories_nodes":[],"categories_segments":[],"categories_sizes":[],"default_left":[0,0,0,0,0,0,0,0,0,0,0,0,0,0,0,0,0,0,0,0,0,0,0,0,0],"id":14,"left_children":[1,3,-1,5,7,9,11,13,-1,15,-1,-1,-1,17,19,-1,-1,21,23,-1,-1,-1,-1,-1,-1],"loss_changes":[3.6068364E3,3.5143623E3,0E0,4.1538025E1,1.8290576E2,1.448883E0,1.0743885E0,3.963867E1,0E0,5.053711E-1,0E0,0E0,0E0,3.2978516E1,1.4721038E0,0E0,0E0,3.9486027E0,1.6291504E1,0E0,0E0,0E0,0E0,0E0,0E0],"parents":[2147483647,0,0,1,1,3,3,4,4,5,5,6,6,7,7,9,9,13,13,14,14,17,17,18,18],"right_children":[2,4,-1,6,8,10,12,14,-1,16,-1,-1,-1,18,20,-1,-1,22,24,-1,-1,-1,-1,-1,-1],"split_conditions":[3.6E1,1.214E1,-5.8463544E-2,1.113E2,1.642E2,1.09E2,1.527E2,1.55E2,-5.68812E-2,5.38E1,2.394958E-2,1.6812004E-1,2.7915005E-2,1.273E1,3.025E2,-5.8190543E-2,3.2431155E-3,1E0,3.533E1,-5.13783E-2,3.6392592E-2,-1.568428E-2,8.185769E-2,1.8085186E-1,4.603332E-2],"split_indices":[4,4,0,2,2,2,2,3,0,3,0,0,0,4,3,0,0,13,4,0,0,0,0,0,0],"split_type":[0,0,0,0,0,0,0,0,0,0,0,0,0,0,0,0,0,0,0,0,0,0,0,0,0],"sum_hessian":[7.098909E3,2.8548535E3,4.2440557E3,1.0719589E3,1.7828948E3,1.0636562E3,8.302598E0,1.7493342E3,3.356058E1,1.0619999E3,1.6564071E0,7.2376003E0,1.0649973E0,1.7406196E3,8.714654E0,1.060762E3,1.2378722E0,2.6513645E1,1.714106E3,6.9900064E0,1.7246473E0,4.720331E0,2.1793314E1,1.7042909E3,9.815063E0],"tree_param":{"num_deleted":"0","num_feature":"19","num_nodes":"25","size_leaf_vector":"1"}},{"base_weights":[-3.1147607E-5,-5.758983E-1,4.8145428E-1,-5.8154565E-1,2.9588315E-1,1.7956553E0,-5.8452465E-2,-5.837409E-1,-3.4520134E-1,1.5626293E0,-5.438147E-2,1.8038288E0,1.1962192E0,-5.8456864E-2,-3.525336E-1,-5.643889E-2,1.0389771E0,4.3347325E-2,1.7013472E-1,1.8071876E-1,1.252455E0,1.6144705E0,5.960193E-1,3.27584E-1,-5.339476E-2,6.9717388E-3,1.3672179E-1,-1.80461E-1,1.6070114E0,5.253158E-2,1.7339785E-1,-3.8875204E-2,8.0807406E-1,7.442315E-2,-3.1094134E-2,8.977007E-3,-3.501926E-2,4.516976E-2,1.71102E-1,1.016323E-1,-3.4153067E-2],"categories":[],"categories_nodes":[],"categories_segments":[],"categories_sizes":[],"default_left":[0,0,0,0,0,0,0,0,0,0,0,0,0,0,0,0,0,0,0,0,0,0,0,0,0,0,0,0,0,0,0,0,0,0,0,0,0,0,0,0,0],"id":15,"left_children":[1,3,5,7,9,11,-1,13,15,17,-1,19,21,-1,23,-1,25,-1,-1,-1,27,29,31,33,-1,-1,-1,35,37,-1,-1,-1,39,-1,-1,-1,-1,-1,-1,-1,-1],"loss_changes":[1.9688206E3,1.6091187E1,5.4187324E3,1.4654541E0,2.3691362E1,6.32959E0,0E0,4.029541E-1,1.029976E1,6.4377785E-1,0E0,8.979492E-1,5.632511E0,0E0,1.886307E0,0E0,1.4091163E0,0E0,0E0,0E0,7.1960716E0,1.0280952E0,2.8981013E0,1.1733319E0,0E0,0E0,0E0,1.963442E-1,5.4867744E-1,0E0,0E0,0E0,2.8623328E0,0E0,0E0,0E0,0E0,0E0,0E0,0E0,0E0],"parents":[2147483647,0,0,1,1,2,2,3,3,4,4,5,5,7,7,8,8,9,9,11,11,12,12,14,14,16,16,20,20,21,21,22,22,23,23,27,27,28,28,32,32],"right_children":[2,4,6,8,10,12,-1,14,16,18,-1,20,22,-1,24,-1,26,-1,-1,-1,28,30,32,34,-1,-1,-1,36,38,-1,-1,-1,40,-1,-1,-1,-1,-1,-1,-1,-1],"split_conditions":[5.433E1,2.5E2,9.4E1,5.4E1,3.3E2,9.3E1,-5.8452465E-2,2.11E2,6.05E2,2.64E2,-5.438147E-2,3.42E2,1.171E2,-5.8456864E-2,2.2E1,-5.643889E-2,2.29E1,4.3347325E-2,1.7013472E-1,1.8071876E-1,5.5E0,1.138E2,1.188E2,1.77E1,-5.339476E-2,6.9717388E-3,1.3672179E-1,1.009E3,5.7E1,5.253158E-2,1.7339785E-1,-3.8875204E-2,9.3E1,7.442315E-2,-3.1094134E-2,8.977007E-3,-3.501926E-2,4.516976E-2,1.71102E-1,1.016323E-1,-3.4153067E-2],"split_indices":[4,3,4,4,3,4,0,2,0,3,0,3,3,0,4,0,10,0,0,0,5,3,3,1,0,0,0,8,4,0,0,0,9,0,0,0,0,0,0,0,0],"split_type":[0,0,0,0,0,0,0,0,0,0,0,0,0,0,0,0,0,0,0,0,0,0,0,0,0,0,0,0,0,0,0,0,0,0,0,0,0,0,0,0,0],"sum_hessian":[7.098693E3,3.2324346E3,3.8662585E3,3.2119604E3,2.047403E1,1.7312222E3,2.1350364E3,3.1809448E3,3.1015635E1,7.8184214E0,1.2655608E1,1.7059518E3,2.5270386E1,3.1680742E3,1.2870606E1,2.7286947E1,3.7286878E0,1.3067119E0,6.5117097E0,1.6933585E3,1.2593301E1,1.3896603E1,1.1373783E1,2.5405192E0,1.0330088E1,1.2499924E0,2.4786954E0,2.5953584E0,9.997943E0,1.9075458E0,1.1989057E1,1.8675792E0,9.506204E0,1.4371862E0,1.1033331E0,1.183E0,1.4123583E0,1.2670125E0,8.73093E0,8.146429E0,1.3597751E0],"tree_param":{"num_deleted":"0","num_feature":"19","num_nodes":"41","size_leaf_vector":"1"}},{"base_weights":[-2.5189258E-5,4.8083735E-1,-5.8012277E-1,-5.124492E-1,1.7996985E0,-3.447602E-1,-5.846264E-2,-5.7231355E-1,1.582096E0,1.8050898E0,1.3122195E0,-4.7023514E-1,3.41403E-2,-5.830586E-2,1.2224299E0,6.5053797E-1,1.7130376E0,1.1958082E0,1.8087362E-1,-2.5577924E-1,1.7185424E-1,-6.070471E-2,-5.1438546E-1,-4.707559E-2,2.3591596E-1,1.7170082E-1,-4.3443367E-2,8.658405E-1,-3.118945E-2,6.4181143E-1,1.7952292E-1,2.6781766E-2,1.2582793E0,1.5615334E-2,-4.4153314E-2,4.2196415E-2,-4.3044616E-2,-1.5430543E-1,-5.394355E-1,5.689103E-1,-1.9639216E-1,1.0635908E-1,1.0722948E-2,3.0805558E-2,-3.283114E-2,8.383996E-2,-3.9135264E-3,4.193146E-2,1.3270397E-1,2.8295023E-2,-3.9862845E-2,-2.2256186E-2,-5.528893E-2,7.873639E-2,-3.1674277E-2,2.8230224E-2,-3.53032E-2],"categories":[],"categories_nodes":[],"categories_segments":[],"categories_sizes":[],"default_left":[0,0,0,0,0,0,0,0,0,0,0,0,0,0,0,0,0,0,0,0,0,0,0,0,0,0,0,0,0,0,0,0,0,0,0,0,0,0,0,0,0,0,0,0,0,0,0,0,0,0,0,0,0,0,0,0,0],"id":16,"left_children":[1,3,5,7,9,11,-1,13,15,17,19,21,23,-1,25,27,29,31,-1,33,-1,35,37,-1,39,-1,-1,41,43,45,-1,-1,47,-1,-1,-1,-1,49,51,53,55,-1,-1,-1,-1,-1,-1,-1,-1,-1,-1,-1,-1,-1,-1,-1,-1],"loss_changes":[1.980811E3,5.08716E3,3.210083E0,2.786958E2,2.015625E0,3.004815E0,0E0,4.226361E1,6.4270935E0,1.496582E0,1.4398678E1,8.2388496E-1,1.7992852E0,0E0,1.1518181E1,1.3820021E0,3.5665283E0,4.022045E-1,0E0,4.805828E-1,0E0,1.2053344E0,3.0063057E-1,0E0,1.9120383E0,0E0,0E0,9.436598E-1,4.217718E-1,7.524092E-1,0E0,0E0,1.1712074E-1,0E0,0E0,0E0,0E0,5.581431E-1,4.4866562E-2,1.6658254E0,5.6342196E-1,0E0,0E0,0E0,0E0,0E0,0E0,0E0,0E0,0E0,0E0,0E0,0E0,0E0,0E0,0E0,0E0],"parents":[2147483647,0,0,1,1,2,2,3,3,4,4,5,5,7,7,8,8,9,9,10,10,11,11,12,12,14,14,15,15,16,16,17,17,19,19,21,21,22,22,24,24,27,27,28,28,29,29,32,32,37,37,38,38,39,39,40,40],"right_children":[2,4,6,8,10,12,-1,14,16,18,20,22,24,-1,26,28,30,32,-1,34,-1,36,38,-1,40,-1,-1,42,44,46,-1,-1,48,-1,-1,-1,-1,50,52,54,56,-1,-1,-1,-1,-1,-1,-1,-1,-1,-1,-1,-1,-1,-1,-1,-1],"split_conditions":[5.433E1,3.533E1,5.6E1,1.58E2,2.396E2,7.75E1,-5.846264E-2,1.55E2,1.642E2,3.6E1,3.968525E2,1.59E1,5.5E1,-5.830586E-2,2.64E2,3.8E1,5.5E0,1.67E1,1.8087362E-1,2.82E2,1.7185424E-1,1.44E0,6.13E1,-4.707559E-2,1E0,1.7170082E-1,-4.3443367E-2,6.3E1,7.5E0,3.72E1,1.7952292E-1,2.6781766E-2,4.6E1,1.5615334E-2,-4.4153314E-2,4.2196415E-2,-4.3044616E-2,1.488E2,5E0,9.6E1,2E0,1.0635908E-1,1.0722948E-2,3.0805558E-2,-3.283114E-2,8.383996E-2,-3.9135264E-3,4.193146E-2,1.3270397E-1,2.8295023E-2,-3.9862845E-2,-2.2256186E-2,-5.528893E-2,7.873639E-2,-3.1674277E-2,2.8230224E-2,-3.53032E-2],"split_indices":[4,4,4,2,3,3,0,3,2,4,3,10,4,0,3,3,5,2,0,3,0,12,3,0,16,0,0,6,1,3,0,0,6,0,0,0,0,0,5,5,14,0,0,0,0,0,0,0,0,0,0,0,0,0,0,0,0],"split_type":[0,0,0,0,0,0,0,0,0,0,0,0,0,0,0,0,0,0,0,0,0,0,0,0,0,0,0,0,0,0,0,0,0,0,0,0,0,0,0,0,0,0,0,0,0,0,0,0,0,0,0,0,0,0,0,0,0],"sum_hessian":[7.0990254E3,3.8816038E3,3.2174216E3,2.2144358E3,1.6671678E3,6.1865032E1,3.1555566E3,2.15361E3,6.0825737E1,1.6462579E3,2.0909912E1,4.6293606E1,1.5571425E1,2.1414644E3,1.2145729E1,8.231631E0,5.2594105E1,1.1750739E1,1.6345072E3,4.379591E0,1.6530321E1,4.736222E0,4.1557384E1,4.0654716E0,1.1505954E1,9.3256855E0,2.8200433E0,6.050651E0,2.1809797E0,4.375512E0,4.8218594E1,1.0746218E0,1.0676118E1,1.4106503E0,2.9689405E0,1.9931185E0,2.7431033E0,3.1687195E0,3.8388664E1,6.3210497E0,5.1849036E0,4.48064E0,1.5700111E0,1.0011256E0,1.1798542E0,3.2158697E0,1.1596423E0,1.3464091E0,9.329709E0,1.0792062E0,2.0895133E0,2.2780075E0,3.6110657E1,5.1594167E0,1.1616331E0,1.0805339E0,4.1043696E0],"tree_param":{"num_deleted":"0","num_feature":"19","num_nodes":"57","size_leaf_vector":"1"}},{"base_weights":[4.099845E-4,-5.7839584E-1,8.86452E-1,-5.822548E-1,1.02290936E-1,1.7956176E0,-3.7056398E-1,-5.846106E-2,-1.9084682E-1,1.3329285E0,-3.768469E-1,5.2122587E-1,1.8128444E-1,6.547503E-1,-4.7668704E-1,-5.5786546E-2,9.68391E-1,1.4329183E0,4.3861132E-2,-5.489262E-2,3.1233856E-1,-2.195965E-1,1.0763125E0,2.1601863E0,-5.510461E-2,2.1703982E-1,-5.057812E-1,1.3042747E0,1.4315054E-1,4.5686763E-2,1.564658E-1,-3.7791237E-2,9.3357965E-2,7.355782E-2,-5.1995557E-2,-3.0392876E-2,1.214541E0,1.7744821E-1,2.4839628E0,1.5445831E-1,-5.149318E-1,4.447521E-2,1.4638327E-1,-3.0475378E-2,5.1995117E-2,1.547704E-1,4.711785E-2,1.7311014E-1,3.008645E-1,1.4516564E-1,-5.2258164E-2],"categories":[],"categories_nodes":[],"categories_segments":[],"categories_sizes":[],"default_left":[0,0,0,0,0,0,0,0,0,0,0,0,0,0,0,0,0,0,0,0,0,0,0,0,0,0,0,0,0,0,0,0,0,0,0,0,0,0,0,0,0,0,0,0,0,0,0,0,0,0,0],"id":17,"left_children":[1,3,5,7,9,11,13,-1,15,17,19,21,-1,23,25,-1,27,29,-1,-1,31,33,35,37,-1,-1,39,41,43,-1,-1,-1,-1,-1,-1,-1,45,-1,47,-1,49,-1,-1,-1,-1,-1,-1,-1,-1,-1,-1],"loss_changes":[3.6412468E3,1.1340576E1,3.2068386E3,3.8260498E0,1.5279249E1,3.4799316E1,1.2852266E2,0E0,1.20421715E1,1.9218445E-2,2.403097E0,9.743315E0,0E0,2.0257442E2,8.337735E1,0E0,1.7165484E0,6.6150665E-2,0E0,0E0,2.2383175E0,3.4617825E0,2.9229593E0,1.7792511E0,0E0,0E0,2.0637299E1,1.3246536E-3,6.832584E-1,0E0,0E0,0E0,0E0,0E0,0E0,0E0,2.3336487E0,0E0,4.4429016E0,0E0,1.6609222E1,0E0,0E0,0E0,0E0,0E0,0E0,0E0,0E0,0E0,0E0],"parents":[2147483647,0,0,1,1,2,2,3,3,4,4,5,5,6,6,8,8,9,9,10,10,11,11,13,13,14,14,16,16,17,17,20,20,21,21,22,22,23,23,26,26,27,27,28,28,36,36,38,38,40,40],"right_children":[2,4,6,8,10,12,14,-1,16,18,20,22,-1,24,26,-1,28,30,-1,-1,32,34,36,38,-1,-1,40,42,44,-1,-1,-1,-1,-1,-1,-1,46,-1,48,-1,50,-1,-1,-1,-1,-1,-1,-1,-1,-1,-1],"split_conditions":[9.3E1,3.42E2,3.03E2,2.11E2,5.5E0,9.4E1,3E0,-5.846106E-2,7.219E2,1.444E3,1.774E2,1.171E2,1.8128444E-1,2.3E1,7E1,-5.5786546E-2,2.1E1,4.167E1,4.3861132E-2,-5.489262E-2,3E0,1.138E2,5.5E1,1E0,-5.510461E-2,2.1703982E-1,1.83E1,6E-1,7.6E1,4.5686763E-2,1.564658E-1,-3.7791237E-2,9.3357965E-2,7.355782E-2,-5.1995557E-2,-3.0392876E-2,3.67E1,1.7744821E-1,1.014E3,1.5445831E-1,1.47E1,4.447521E-2,1.4638327E-1,-3.0475378E-2,5.1995117E-2,1.547704E-1,4.711785E-2,1.7311014E-1,3.008645E-1,1.4516564E-1,-5.2258164E-2],"split_indices":[4,3,3,2,5,4,15,0,0,0,0,3,0,13,9,0,1,4,0,0,18,3,9,15,0,0,1,11,6,0,0,0,0,0,0,0,1,0,8,0,5,0,0,0,0,0,0,0,0,0,0],"split_type":[0,0,0,0,0,0,0,0,0,0,0,0,0,0,0,0,0,0,0,0,0,0,0,0,0,0,0,0,0,0,0,0,0,0,0,0,0,0,0,0,0,0,0,0,0,0,0,0,0,0,0],"sum_hessian":[7.0980747E3,4.29362E3,2.8044546E3,4.2695596E3,2.4060736E1,1.6271516E3,1.177303E3,4.2435254E3,2.603401E1,6.2432866E0,1.781745E1,2.2118876E1,1.6050327E3,1.09940155E2,1.0673629E3,2.0167635E1,5.866376E0,5.0737634E0,1.1695235E0,1.4420405E1,3.397044E0,9.7332325E0,1.2385644E1,4.8542885E1,6.1397266E1,1.0803721E1,1.0565592E3,3.7568219E0,2.1095543E0,1.134712E0,3.9390512E0,1.7946826E0,1.6023613E0,1.9818228E0,7.751409E0,1.0183583E0,1.1367286E1,2.5110336E1,2.343255E1,3.9488459E0,1.0526104E3,1.1812025E0,2.5756192E0,1.051198E0,1.0583563E0,7.1021733E0,4.265112E0,1.1389377E1,1.2043174E1,3.347267E0,1.0492631E3],"tree_param":{"num_deleted":"0","num_feature":"19","num_nodes":"51","size_leaf_vector":"1"}},{"base_weights":[-3.5855954E-4,1.5153066E0,-5.7788886E-2,1.5213779E0,-4.9349364E-2,1.5302708E0,9.570702E-1,1.5315425E-1,-3.1196306E-2,-3.7545364E-2,1.0442395E0,1.1102979E0,-3.4063634E-2,3.373574E-2,1.2191055E-1],"categories":[],"categories_nodes":[],"categories_segments":[],"categories_sizes":[],"default_left":[0,0,0,0,0,0,0,0,0,0,0,0,0,0,0],"id":18,"left_children":[1,3,-1,5,-1,7,9,-1,-1,-1,11,13,-1,-1,-1],"loss_changes":[6.095652E3,2.4184082E1,0E0,8.148926E0,0E0,4.892578E0,4.15464E0,0E0,0E0,0E0,3.1838188E0,2.0702934E0,0E0,0E0,0E0],"parents":[2147483647,0,0,1,1,3,3,5,5,6,6,10,10,11,11],"right_children":[2,4,-1,6,-1,8,10,-1,-1,-1,12,14,-1,-1,-1],"split_conditions":[1.273E1,1.113E2,-5.7788886E-2,1.214E1,-4.9349364E-2,5.38E1,1.001E3,1.5315425E-1,-3.1196306E-2,-3.7545364E-2,1.018E3,4.193E2,-3.4063634E-2,3.373574E-2,1.2191055E-1],"split_indices":[4,2,0,4,0,3,8,0,0,0,8,0,0,0,0],"split_type":[0,0,0,0,0,0,0,0,0,0,0,0,0,0,0],"sum_hessian":[6.961733E3,1.9203528E3,5.04138E3,1.9148082E3,5.544541E0,1.8834156E3,3.1392656E1,1.882285E3,1.1306127E0,1.7244517E0,2.9668205E1,2.8506706E1,1.1614981E0,4.0237226E0,2.4482985E1],"tree_param":{"num_deleted":"0","num_feature":"19","num_nodes":"15","size_leaf_vector":"1"}},{"base_weights":[-3.3257864E-5,-5.778414E-2,1.4398162E0,-5.6135643E-2,1.4701132E0,-5.4168005E-2,1.4850817E0,-5.044612E-2,1.4920834E0,1.4961205E0,-5.29836E-2,1.4992498E-1,-4.4040386E-2],"categories":[],"categories_nodes":[],"categories_segments":[],"categories_sizes":[],"default_left":[0,0,0,0,0,0,0,0,0,0,0,0,0],"id":19,"left_children":[1,-1,3,-1,5,-1,7,-1,9,11,-1,-1,-1],"loss_changes":[5.797658E3,0E0,1.218208E2,0E0,6.001367E1,0E0,2.794336E1,0E0,1.6670898E1,1.2426758E1,0E0,0E0,0E0],"parents":[2147483647,0,0,2,2,4,4,6,6,8,8,9,9],"right_children":[2,-1,4,-1,6,-1,8,-1,10,12,-1,-1,-1],"split_conditions":[3.03E2,-5.778414E-2,1.014E3,-5.6135643E-2,1E0,-5.4168005E-2,1.53E1,-5.044612E-2,2.47E1,6.23E1,-5.29836E-2,1.4992498E-1,-4.4040386E-2],"split_indices":[3,0,8,0,15,0,5,0,10,2,0,0,0],"split_type":[0,0,0,0,0,0,0,0,0,0,0,0,0],"sum_hessian":[6.966701E3,4.972034E3,1.9946667E3,2.948662E1,1.9651802E3,1.4253861E1,1.9509263E3,6.5926013E0,1.9443337E3,1.9407189E3,3.6148837E0,1.9378134E3,2.9054482E0],"tree_param":{"num_deleted":"0","num_feature":"19","num_nodes":"13","size_leaf_vector":"1"}},{"base_weights":[-1.4185051E-4,7.7875936E-1,-5.7785768E-2,-5.5407315E-1,1.4684485E0,-5.7417005E-1,1.2046E0,1.5022402E0,-5.616368E-2,-5.7495363E-2,3.3712932E-3,1.4504239E-1,-4.74639E-5,1.5103489E0,-3.0827835E-1,5.8196497E-1,1.5236864E0,-5.138373E-2,7.062718E-2,6.993215E-2,-3.5553064E-2,1.5294246E-1,4.218004E-2],"categories":[],"categories_nodes":[],"categories_segments":[],"categories_sizes":[],"default_left":[0,0,0,0,0,0,0,0,0,0,0,0,0,0,0,0,0,0,0,0,0,0,0],"id":20,"left_children":[1,3,-1,5,7,9,11,13,-1,-1,-1,-1,-1,15,17,19,21,-1,-1,-1,-1,-1,-1],"loss_changes":[3.1333545E3,2.726644E3,0E0,3.645645E1,1.3491553E2,4.9624634E-1,3.4831066E0,2.8692383E1,0E0,0E0,0E0,0E0,0E0,2.2816406E1,2.3239288E0,3.4094906E0,1.1282715E1,0E0,0E0,0E0,0E0,0E0,0E0],"parents":[2147483647,0,0,1,1,3,3,4,4,5,5,6,6,7,7,13,13,14,14,15,15,16,16],"right_children":[2,4,-1,6,8,10,12,14,-1,-1,-1,-1,-1,16,18,20,22,-1,-1,-1,-1,-1,-1],"split_conditions":[3.6E1,1.214E1,-5.7785768E-2,1.09E2,1.642E2,5.38E1,1.25E2,1.55E2,-5.616368E-2,-5.7495363E-2,3.3712932E-3,1.4504239E-1,-4.74639E-5,1.273E1,3.14E2,1.25E2,3.533E1,-5.138373E-2,7.062718E-2,6.993215E-2,-3.5553064E-2,1.5294246E-1,4.218004E-2],"split_indices":[4,4,0,2,2,3,5,3,0,0,0,0,0,4,3,5,4,0,0,0,0,0,0],"split_type":[0,0,0,0,0,0,0,0,0,0,0,0,0,0,0,0,0,0,0,0,0,0,0],"sum_hessian":[6.961264E3,2.9643083E3,3.9969556E3,1.0109097E3,1.9533987E3,1.0001542E3,1.0755544E1,1.9216716E3,3.1727121E1,9.989207E2,1.233447E0,8.764144E0,1.9913995E0,1.9132684E3,8.403123E0,2.7729584E1,1.8855388E3,7.3977833E0,1.0053397E0,2.4870348E1,2.8592372E0,1.8753848E3,1.0154088E1],"tree_param":{"num_deleted":"0","num_feature":"19","num_nodes":"23","size_leaf_vector":"1"}},{"base_weights":[-6.9001144E-5,-5.68753E-1,4.424001E-1,-5.746031E-1,2.7896795E-1,1.5196638E0,-5.7775106E-2,-5.7690907E-1,-3.3008492E-1,1.3646579E0,-5.363233E-2,1.5258938E0,1.0488034E0,-5.777753E-2,-3.4020147E-1,-5.5678077E-2,9.806385E-1,4.041628E-2,1.475326E-1,1.5283605E-1,1.103155E0,1.3894728E0,5.380411E-1,3.1263933E-1,-5.256463E-2,7.521113E-3,1.267049E-1,-1.752697E-1,1.3924733E0,4.8471797E-2,1.4825301E-1,-3.8167905E-2,7.231511E-1,6.962897E-2,-3.0431572E-2,9.253661E-3,-3.4593347E-2,4.2637672E-2,1.4717364E-1,9.0109535E-2,-3.3505317E-2],"categories":[],"categories_nodes":[],"categories_segments":[],"categories_sizes":[],"default_left":[0,0,0,0,0,0,0,0,0,0,0,0,0,0,0,0,0,0,0,0,0,0,0,0,0,0,0,0,0,0,0,0,0,0,0,0,0,0,0,0,0],"id":21,"left_children":[1,3,5,7,9,11,-1,13,15,17,-1,19,21,-1,23,-1,25,-1,-1,-1,27,29,31,33,-1,-1,-1,35,37,-1,-1,-1,39,-1,-1,-1,-1,-1,-1,-1,-1],"loss_changes":[1.7519841E3,1.5270081E1,4.3043296E3,1.5159302E0,1.9811289E1,3.9873047E0,0E0,4.1784668E-1,9.641303E0,4.1636658E-1,0E0,2.7294922E-1,4.137163E0,0E0,1.7815709E0,0E0,1.1690779E0,0E0,0E0,0E0,5.602785E0,6.460724E-1,2.4661627E0,1.0597706E0,0E0,0E0,0E0,1.9480734E-1,2.857399E-1,0E0,0E0,0E0,2.3834834E0,0E0,0E0,0E0,0E0,0E0,0E0,0E0,0E0],"parents":[2147483647,0,0,1,1,2,2,3,3,4,4,5,5,7,7,8,8,9,9,11,11,12,12,14,14,16,16,20,20,21,21,22,22,23,23,27,27,28,28,32,32],"right_children":[2,4,6,8,10,12,-1,14,16,18,-1,20,22,-1,24,-1,26,-1,-1,-1,28,30,32,34,-1,-1,-1,36,38,-1,-1,-1,40,-1,-1,-1,-1,-1,-1,-1,-1],"split_conditions":[5.433E1,2.5E2,9.4E1,5.4E1,3.3E2,9.3E1,-5.7775106E-2,2.11E2,6.05E2,2.64E2,-5.363233E-2,3.42E2,1.171E2,-5.777753E-2,2.2E1,-5.5678077E-2,2.29E1,4.041628E-2,1.475326E-1,1.5283605E-1,5.5E0,1.138E2,1.188E2,1.77E1,-5.256463E-2,7.521113E-3,1.267049E-1,6.7E1,5.7E1,4.8471797E-2,1.4825301E-1,-3.8167905E-2,9.3E1,6.962897E-2,-3.0431572E-2,9.253661E-3,-3.4593347E-2,4.2637672E-2,1.4717364E-1,9.0109535E-2,-3.3505317E-2],"split_indices":[4,3,4,4,3,4,0,2,0,3,0,3,3,0,4,0,10,0,0,0,5,3,3,1,0,0,0,4,4,0,0,0,9,0,0,0,0,0,0,0,0],"split_type":[0,0,0,0,0,0,0,0,0,0,0,0,0,0,0,0,0,0,0,0,0,0,0,0,0,0,0,0,0,0,0,0,0,0,0,0,0,0,0,0,0],"sum_hessian":[6.960677E3,3.045788E3,3.9148887E3,3.0252332E3,2.0554895E1,1.903905E3,2.0109835E3,2.9956233E3,2.9609938E1,8.526575E0,1.2028319E1,1.8768319E3,2.7073143E1,2.9832651E3,1.2358285E1,2.5734282E1,3.875656E0,1.361558E0,7.1650176E0,1.8633438E3,1.3488063E1,1.5208773E1,1.186437E1,2.5821571E0,9.776128E0,1.2347735E0,2.6408823E0,2.561895E0,1.09261675E1,1.9974325E0,1.321134E1,1.809911E0,1.005446E1,1.5128245E0,1.0693326E0,1.1753361E0,1.3865585E0,1.312162E0,9.614006E0,8.73421E0,1.3202493E0],"tree_param":{"num_deleted":"0","num_feature":"19","num_nodes":"41","size_leaf_vector":"1"}},{"base_weights":[-3.078389E-5,4.4210318E-1,-5.731182E-1,-5.0367147E-1,1.5227222E0,-3.302231E-1,-5.7785388E-2,-5.65091E-1,1.3613942E0,1.5268214E0,1.142004E0,-4.5867872E-1,4.405956E-2,-5.761808E-2,1.0767368E0,6.126238E-1,1.4590052E0,1.0489438E0,1.5296063E-1,-2.509175E-1,1.4683721E0,-4.876079E-2,-5.044771E-1,-4.6071634E-2,2.369129E-1,1.474173E-1,-4.257421E-2,1.007394E0,2.1051398E-1,5.8161783E-1,1.5228562E-1,2.294285E-2,1.1055341E0,1.4530445E-2,-4.3530833E-2,6.0722377E-2,1.5277557E-1,4.1306745E-2,-4.2067345E-2,-1.4195989E-1,-5.3059006E-1,5.43104E-1,-1.8200833E-1,2.10739E-2,1.236166E-1,7.0158206E-2,-2.8272597E-2,7.56812E-2,-4.3319026E-3,4.346524E-2,1.18284225E-1,2.9255925E-2,-3.9140936E-2,-2.111871E-2,-5.4463573E-2,8.651163E-2,-7.7952915E-3,-3.4226514E-2,2.9121816E-2],"categories":[],"categories_nodes":[],"categories_segments":[],"categories_sizes":[],"default_left":[0,0,0,0,0,0,0,0,0,0,0,0,0,0,0,0,0,0,0,0,0,0,0,0,0,0,0,0,0,0,0,0,0,0,0,0,0,0,0,0,0,0,0,0,0,0,0,0,0,0,0,0,0,0,0,0,0,0,0],"id":22,"left_children":[1,3,5,7,9,11,-1,13,15,17,19,21,23,-1,25,27,29,31,-1,33,35,37,39,-1,41,-1,-1,43,45,47,-1,-1,49,-1,-1,-1,-1,-1,-1,51,53,55,57,-1,-1,-1,-1,-1,-1,-1,-1,-1,-1,-1,-1,-1,-1,-1,-1],"loss_changes":[1.7643333E3,4.0179927E3,3.2973022E0,2.409682E2,1.1196289E0,2.9206243E0,0E0,3.759485E1,4.0136795E0,8.076172E-1,1.1057272E1,8.2021046E-1,1.6984944E0,0E0,8.971535E0,1.290803E0,2.4015121E0,3.8089275E-1,0E0,4.5173538E-1,5.3897858E-2,1.1406672E0,3.0684185E-1,0E0,1.6988333E0,0E0,0E0,5.620246E-1,1.6405728E0,6.4573157E-1,0E0,0E0,1.3607407E-1,0E0,0E0,0E0,0E0,0E0,0E0,5.5651355E-1,5.2283287E-2,1.5588276E0,5.5592674E-1,0E0,0E0,0E0,0E0,0E0,0E0,0E0,0E0,0E0,0E0,0E0,0E0,0E0,0E0,0E0,0E0],"parents":[2147483647,0,0,1,1,2,2,3,3,4,4,5,5,7,7,8,8,9,9,10,10,11,11,12,12,14,14,15,15,16,16,17,17,19,19,20,20,21,21,22,22,24,24,27,27,28,28,29,29,32,32,39,39,40,40,41,41,42,42],"right_children":[2,4,6,8,10,12,-1,14,16,18,20,22,24,-1,26,28,30,32,-1,34,36,38,40,-1,42,-1,-1,44,46,48,-1,-1,50,-1,-1,-1,-1,-1,-1,52,54,56,58,-1,-1,-1,-1,-1,-1,-1,-1,-1,-1,-1,-1,-1,-1,-1,-1],"split_conditions":[5.433E1,3.533E1,5.6E1,1.58E2,2.396E2,7.75E1,-5.7785388E-2,1.55E2,1.642E2,3.6E1,3.968525E2,1.59E1,5.5E1,-5.761808E-2,2.64E2,1.226E2,5.5E0,1.167E2,1.5296063E-1,2.82E2,8E-1,1.44E0,6.13E1,-4.6071634E-2,1E0,1.474173E-1,-4.257421E-2,5.3E0,1.4E1,3.72E1,1.5228562E-1,2.294285E-2,2.25E1,1.4530445E-2,-4.3530833E-2,6.0722377E-2,1.5277557E-1,4.1306745E-2,-4.2067345E-2,1.33E1,5E0,8.9E1,1.6E0,2.10739E-2,1.236166E-1,7.0158206E-2,-2.8272597E-2,7.56812E-2,-4.3319026E-3,4.346524E-2,1.18284225E-1,2.9255925E-2,-3.9140936E-2,-2.111871E-2,-5.4463573E-2,8.651163E-2,-7.7952915E-3,-3.4226514E-2,2.9121816E-2],"split_indices":[4,4,4,2,3,3,0,3,2,4,3,10,4,0,3,0,5,0,0,3,12,12,3,0,16,0,0,1,13,3,0,0,2,0,0,0,0,0,0,1,5,9,11,0,0,0,0,0,0,0,0,0,0,0,0,0,0,0,0],"split_type":[0,0,0,0,0,0,0,0,0,0,0,0,0,0,0,0,0,0,0,0,0,0,0,0,0,0,0,0,0,0,0,0,0,0,0,0,0,0,0,0,0,0,0,0,0,0,0,0,0,0,0,0,0,0,0,0,0,0,0],"sum_hessian":[6.961152E3,3.9296648E3,3.031487E3,2.095865E3,1.8337998E3,5.932639E1,2.972161E3,2.0297201E3,6.6144844E1,1.8112875E3,2.251233E1,4.3999916E1,1.5326471E1,2.016747E3,1.2973138E1,8.467456E0,5.767739E1,1.2682161E1,1.7986052E3,4.317339E0,1.8194988E1,4.6293774E0,3.937054E1,3.8529038E0,1.1473568E1,1.0274233E1,2.6989043E0,3.513155E0,4.9543004E0,4.598442E0,5.307895E1,1.1456454E0,1.1536516E1,1.4384183E0,2.8789208E0,1.8979162E0,1.6297073E1,2.0156972E0,2.6136801E0,3.0778747E0,3.6292664E1,6.4573975E0,5.01617E0,1.2123951E0,2.30076E0,2.2709525E0,2.683348E0,3.4267647E0,1.1716772E0,1.8762971E0,9.660219E0,1.0594997E0,2.018375E0,2.2041962E0,3.4088467E1,3.9937177E0,2.4636798E0,3.9539256E0,1.0622444E0],"tree_param":{"num_deleted":"0","num_feature":"19","num_nodes":"59","size_leaf_vector":"1"}},{"base_weights":[6.335548E-4,-5.7132816E-1,7.937877E-1,-5.753477E-1,1.0230013E-1,1.5199018E0,-3.5853082E-1,-5.7781618E-2,-1.7629457E-1,1.1830199E-1,-3.6510393E-1,4.7941843E-1,1.5330029E-1,6.017785E-1,-4.6581596E-1,-5.5018343E-2,9.030182E-1,-5.4151636E-2,3.060717E-1,-2.0934175E-1,9.520136E-1,1.8046807E0,-5.4272294E-2,1.8355154E-1,-4.95575E-1,1.1982435E0,1.399625E-1,-3.6817368E-2,8.716604E-2,6.721562E-2,-5.1153332E-2,-3.0152887E-2,1.0702341E0,1.5086335E-1,2.0424232E0,1.3511142E-1,-5.049371E-1,1.3455771E-1,4.1774463E-2,-2.9637579E-2,4.9039807E-2,1.3409995E-1,4.327684E-2,1.4797151E-1,2.4021362E-1,1.2808727E-1,-5.1277187E-2],"categories":[],"categories_nodes":[],"categories_segments":[],"categories_sizes":[],"default_left":[0,0,0,0,0,0,0,0,0,0,0,0,0,0,0,0,0,0,0,0,0,0,0,0,0,0,0,0,0,0,0,0,0,0,0,0,0,0,0,0,0,0,0,0,0,0,0],"id":23,"left_children":[1,3,5,7,9,11,13,-1,15,-1,17,19,-1,21,23,-1,25,-1,27,29,31,33,-1,-1,35,37,39,-1,-1,-1,-1,-1,41,-1,43,-1,45,-1,-1,-1,-1,-1,-1,-1,-1,-1,-1],"loss_changes":[3.158957E3,1.1013794E1,2.4416921E3,3.8599854E0,1.2983251E1,2.3664062E1,1.165558E2,0E0,1.1055695E1,0E0,2.3100164E0,7.9178143E0,0E0,1.5772124E2,7.047308E1,0E0,1.4341197E0,0E0,2.0019615E0,3.1326165E0,2.433485E0,8.419342E-1,0E0,0E0,1.8032745E1,1.2255669E-2,6.21786E-1,0E0,0E0,0E0,0E0,0E0,1.7041712E0,0E0,2.1309586E0,0E0,1.4637283E1,0E0,0E0,0E0,0E0,0E0,0E0,0E0,0E0,0E0,0E0],"parents":[2147483647,0,0,1,1,2,2,3,3,4,4,5,5,6,6,8,8,10,10,11,11,13,13,14,14,16,16,18,18,19,19,20,20,21,21,24,24,25,25,26,26,32,32,34,34,36,36],"right_children":[2,4,6,8,10,12,14,-1,16,-1,18,20,-1,22,24,-1,26,-1,28,30,32,34,-1,-1,36,38,40,-1,-1,-1,-1,-1,42,-1,44,-1,46,-1,-1,-1,-1,-1,-1,-1,-1,-1,-1],"split_conditions":[9.3E1,3.42E2,3.03E2,2.11E2,5.5E0,9.4E1,3E0,-5.7781618E-2,7.219E2,1.1830199E-1,1.774E2,1.171E2,1.5330029E-1,2.3E1,7E1,-5.5018343E-2,2.1E1,-5.4151636E-2,3E0,1.138E2,5.5E1,1E0,-5.4272294E-2,1.8355154E-1,1.83E1,7.6E1,7.6E1,-3.6817368E-2,8.716604E-2,6.721562E-2,-5.1153332E-2,-3.0152887E-2,3.67E1,1.5086335E-1,1.014E3,1.3511142E-1,1.47E1,1.3455771E-1,4.1774463E-2,-2.9637579E-2,4.9039807E-2,1.3409995E-1,4.327684E-2,1.4797151E-1,2.4021362E-1,1.2808727E-1,-5.1277187E-2],"split_indices":[4,3,3,2,5,4,15,0,0,0,0,3,0,13,9,0,1,0,18,3,9,15,0,0,1,6,6,0,0,0,0,0,1,0,8,0,5,0,0,0,0,0,0,0,0,0,0],"split_type":[0,0,0,0,0,0,0,0,0,0,0,0,0,0,0,0,0,0,0,0,0,0,0,0,0,0,0,0,0,0,0,0,0,0,0,0,0,0,0,0,0,0,0,0,0,0,0],"sum_hessian":[6.961365E3,4.044827E3,2.916538E3,4.0209792E3,2.3847574E1,1.7889453E3,1.1275928E3,3.995814E3,2.5165411E1,6.737728E0,1.7109846E1,2.2712461E1,1.7662329E3,1.1285135E2,1.0147414E3,1.9054808E1,6.110603E0,1.3701669E1,3.4081779E0,9.469154E0,1.3243308E1,5.4740627E1,5.8110718E1,1.2179696E1,1.0025617E3,3.9947262E0,2.1158767E0,1.7139728E0,1.694205E0,2.104888E0,7.3642664E0,1.0076973E0,1.223561E1,2.7652369E1,2.7088259E1,4.3341227E0,9.982276E2,2.7513592E0,1.2433668E0,1.0111395E0,1.104737E0,7.813264E0,4.4223466E0,1.25576315E1,1.4530628E1,3.6505427E0,9.94577E2],"tree_param":{"num_deleted":"0","num_feature":"19","num_nodes":"47","size_leaf_vector":"1"}},{"base_weights":[-4.814055E-4,1.3216866E0,-5.7157602E-2,1.3265948E0,-4.851946E-2,1.3340608E0,8.492054E-1,1.3351063E-1,-3.0527378E-2,-3.7243016E-2,9.246554E-1,9.818491E-1,-3.382642E-2,3.08903E-2,1.0728365E-1],"categories":[],"categories_nodes":[],"categories_segments":[],"categories_sizes":[],"default_left":[0,0,0,0,0,0,0,0,0,0,0,0,0,0,0],"id":24,"left_children":[1,3,-1,5,-1,7,9,-1,-1,-1,11,13,-1,-1,-1],"loss_changes":[5.122161E3,1.8790771E1,0E0,6.1413574E0,0E0,3.848877E0,3.4946804E0,0E0,0E0,0E0,2.678009E0,1.5867176E0,0E0,0E0,0E0],"parents":[2147483647,0,0,1,1,3,3,5,5,6,6,10,10,11,11],"right_children":[2,4,-1,6,-1,8,10,-1,-1,-1,12,14,-1,-1,-1],"split_conditions":[1.273E1,1.113E2,-5.7157602E-2,1.214E1,-4.851946E-2,5.38E1,1.001E3,1.3351063E-1,-3.0527378E-2,-3.7243016E-2,1.018E3,4.193E2,-3.382642E-2,3.08903E-2,1.0728365E-1],"split_indices":[4,2,0,4,0,3,8,0,0,0,8,0,0,0,0],"split_type":[0,0,0,0,0,0,0,0,0,0,0,0,0,0,0],"sum_hessian":[6.7815728E3,2.045236E3,4.736337E3,2.0399604E3,5.2755623E0,2.006782E3,3.317847E1,2.0056884E3,1.0936047E0,1.7009938E0,3.1477478E1,3.0326633E1,1.1508435E0,4.1354833E0,2.619115E1],"tree_param":{"num_deleted":"0","num_feature":"19","num_nodes":"15","size_leaf_vector":"1"}},{"base_weights":[-2.6992271E-5,-5.7151347E-2,1.2582426E0,-5.546819E-2,1.2826551E0,-5.3422254E-2,1.2946817E0,-4.9536716E-2,1.3002943E0,1.3036078E0,-5.178467E-2,-4.7007237E-2,1.3065574E-1],"categories":[],"categories_nodes":[],"categories_segments":[],"categories_sizes":[],"default_left":[0,0,0,0,0,0,0,0,0,0,0,0,0],"id":25,"left_children":[1,-1,3,-1,5,-1,7,-1,9,11,-1,-1,-1],"loss_changes":[4.884704E3,0E0,9.4610596E1,0E0,4.6441895E1,0E0,2.1544434E1,0E0,1.3169678E1,1.1446533E1,0E0,0E0,0E0],"parents":[2147483647,0,0,2,2,4,4,6,6,8,8,9,9],"right_children":[2,-1,4,-1,6,-1,8,-1,10,12,-1,-1,-1],"split_conditions":[3.03E2,-5.7151347E-2,1.014E3,-5.546819E-2,1E0,-5.3422254E-2,1.53E1,-4.9536716E-2,2.47E1,1E0,-5.178467E-2,-4.7007237E-2,1.3065574E-1],"split_indices":[3,0,8,0,15,0,5,0,10,13,0,0,0],"split_type":[0,0,0,0,0,0,0,0,0,0,0,0,0],"sum_hessian":[6.790952E3,4.670314E3,2.1206382E3,2.7888086E1,2.0927502E3,1.3476075E1,2.0792742E3,6.226401E0,2.0730476E3,2.069559E3,3.488732E0,3.172875E0,2.066386E3],"tree_param":{"num_deleted":"0","num_feature":"19","num_nodes":"13","size_leaf_vector":"1"}},{"base_weights":[-2.1915945E-4,7.0857733E-1,-5.7154555E-2,-5.468818E-1,1.2837794E0,-5.6762373E-1,1.0734214E0,1.3109281E0,-5.5477884E-2,-5.684494E-2,3.5334209E-3,1.2757306E-1,3.6436724E-4,1.3174263E0,-2.9495654E-1,5.280616E-1,1.3284776E0,-5.051746E-2,6.6552214E-2,-1.6567301E-2,6.675471E-2,1.3332008E-1,3.8844362E-2],"categories":[],"categories_nodes":[],"categories_segments":[],"categories_sizes":[],"default_left":[0,0,0,0,0,0,0,0,0,0,0,0,0,0,0,0,0,0,0,0,0,0,0],"id":26,"left_children":[1,3,-1,5,7,9,11,13,-1,-1,-1,-1,-1,15,17,19,21,-1,-1,-1,-1,-1,-1],"loss_changes":[2.7471565E3,2.1871196E3,0E0,3.260486E1,1.043833E2,4.8831177E-1,2.6744576E0,2.1747559E1,0E0,0E0,0E0,0E0,0E0,1.7082764E1,2.1667044E0,2.994955E0,8.405518E0,0E0,0E0,0E0,0E0,0E0,0E0],"parents":[2147483647,0,0,1,1,3,3,4,4,5,5,6,6,7,7,13,13,14,14,15,15,16,16],"right_children":[2,4,-1,6,8,10,12,14,-1,-1,-1,-1,-1,16,18,20,22,-1,-1,-1,-1,-1,-1],"split_conditions":[3.6E1,1.214E1,-5.7154555E-2,1.09E2,1.642E2,5.38E1,1.25E2,1.55E2,-5.5477884E-2,-5.684494E-2,3.5334209E-3,1.2757306E-1,3.6436724E-4,1.273E1,3.14E2,1E0,3.533E1,-5.051746E-2,6.6552214E-2,-1.6567301E-2,6.675471E-2,1.3332008E-1,3.8844362E-2],"split_indices":[4,4,0,2,2,3,5,3,0,0,0,0,0,4,3,13,4,0,0,0,0,0,0],"split_type":[0,0,0,0,0,0,0,0,0,0,0,0,0,0,0,0,0,0,0,0,0,0,0],"sum_hessian":[6.78187E3,3.0266814E3,3.7551885E3,9.5101245E2,2.075669E3,9.396336E2,1.1378855E1,2.0457477E3,2.9921194E1,9.3840594E2,1.2276952E0,9.40729E0,1.9715643E0,2.0376818E3,8.065923E0,2.8807608E1,2.0088741E3,7.0064692E0,1.0594532E0,4.791118E0,2.4016489E1,1.998415E3,1.0459166E1],"tree_param":{"num_deleted":"0","num_feature":"19","num_nodes":"23","size_leaf_vector":"1"}},{"base_weights":[-1.1867887E-4,-5.6206214E-1,4.1053903E-1,-5.681103E-1,2.6434657E-1,1.3251921E0,-5.7144262E-2,-5.705373E-1,-3.1480485E-1,1.2117661E0,-5.2880634E-2,1.3302957E0,9.339823E-1,-5.714458E-2,-3.2796752E-1,-5.495127E-2,9.3092346E-1,3.7714284E-2,1.3041328E-1,1.3322668E-1,9.849115E-1,1.2231895E0,4.889296E-1,2.988245E-1,-5.175494E-2,1.1907335E-1,6.5463856E-3,-1.7034638E-1,1.2292922E0,5.8604336E-1,1.3518578E-1,-3.7438106E-2,6.5247065E-1,6.529577E-2,-2.9760418E-2,9.557683E-3,-3.4215905E-2,1.294387E-1,3.817038E-2,-3.4293514E-2,9.935922E-2,-6.509106E-3,9.3083486E-2],"categories":[],"categories_nodes":[],"categories_segments":[],"categories_sizes":[],"default_left":[0,0,0,0,0,0,0,0,0,0,0,0,0,0,0,0,0,0,0,0,0,0,0,0,0,0,0,0,0,0,0,0,0,0,0,0,0,0,0,0,0,0,0],"id":27,"left_children":[1,3,5,7,9,11,-1,13,15,17,-1,19,21,-1,23,-1,25,-1,-1,-1,27,29,31,33,-1,-1,-1,35,37,39,-1,-1,41,-1,-1,-1,-1,-1,-1,-1,-1,-1,-1],"loss_changes":[1.5652662E3,1.4464722E1,3.5206807E3,1.5684204E0,1.6789366E1,2.809082E0,0E0,4.329834E-1,9.054025E0,2.8650284E-1,0E0,5.029297E-2,3.1976585E0,0E0,1.6816311E0,0E0,1.0470457E0,0E0,0E0,0E0,4.497799E0,6.1852264E-1,2.1194038E0,9.585208E-1,0E0,0E0,0E0,1.9400528E-1,2.0438194E-1,2.1037314E0,0E0,0E0,2.3637476E0,0E0,0E0,0E0,0E0,0E0,0E0,0E0,0E0,0E0,0E0],"parents":[2147483647,0,0,1,1,2,2,3,3,4,4,5,5,7,7,8,8,9,9,11,11,12,12,14,14,16,16,20,20,21,21,22,22,23,23,27,27,28,28,29,29,32,32],"right_children":[2,4,6,8,10,12,-1,14,16,18,-1,20,22,-1,24,-1,26,-1,-1,-1,28,30,32,34,-1,-1,-1,36,38,40,-1,-1,42,-1,-1,-1,-1,-1,-1,-1,-1,-1,-1],"split_conditions":[5.433E1,2.5E2,9.4E1,5.4E1,3.3E2,9.3E1,-5.7144262E-2,2.11E2,6.05E2,2.64E2,-5.2880634E-2,3.42E2,1.171E2,-5.714458E-2,2.2E1,-5.495127E-2,3.67E1,3.7714284E-2,1.3041328E-1,1.3322668E-1,5.5E0,5.2E1,1.188E2,1.77E1,-5.175494E-2,1.1907335E-1,6.5463856E-3,1.4E1,1.011E3,1.138E2,1.3518578E-1,-3.7438106E-2,2E0,6.529577E-2,-2.9760418E-2,9.557683E-3,-3.4215905E-2,1.294387E-1,3.817038E-2,-3.4293514E-2,9.935922E-2,-6.509106E-3,9.3083486E-2],"split_indices":[4,3,4,4,3,4,0,2,0,3,0,3,3,0,4,0,1,0,0,0,5,9,3,1,0,0,0,13,8,3,0,0,18,0,0,0,0,0,0,0,0,0,0],"split_type":[0,0,0,0,0,0,0,0,0,0,0,0,0,0,0,0,0,0,0,0,0,0,0,0,0,0,0,0,0,0,0,0,0,0,0,0,0,0,0,0,0,0,0],"sum_hessian":[6.7809033E3,2.8629194E3,3.917984E3,2.8424294E3,2.0489927E1,2.0283533E3,1.8896306E3,2.8142126E3,2.8216797E1,9.096451E0,1.13934765E1,1.9998634E3,2.8489845E1,2.8023623E3,1.185025E1,2.4213593E1,4.0032034E0,1.4128721E0,7.683579E0,1.9856737E3,1.4189688E1,1.620863E1,1.2281215E1,2.6181016E0,9.232148E0,2.789853E0,1.2133505E0,2.5304527E0,1.1659235E1,3.656562E0,1.2552068E1,1.7506351E0,1.053058E1,1.583255E0,1.0348465E0,1.1673698E0,1.3630829E0,1.0338125E1,1.3211102E0,1.1633444E0,2.4932177E0,3.157473E0,7.3731065E0],"tree_param":{"num_deleted":"0","num_feature":"19","num_nodes":"43","size_leaf_vector":"1"}},{"base_weights":[-2.4267787E-5,4.1057995E-1,-5.665486E-1,-4.9546263E-1,1.3277915E0,-3.152701E-1,-5.7154574E-2,-5.5834174E-1,1.2017019E0,1.3310649E0,1.0175111E0,-4.47033E-1,5.4901518E-2,-5.6975525E-2,9.6460754E-1,5.872572E-1,1.2772368E0,9.323208E-1,1.3333808E-1,-2.4461037E-1,1.2914397E-1,-3.6509912E-2,-4.9463114E-1,-4.5149576E-2,2.4069047E-1,1.2962127E-1,-4.1689727E-2,7.7727515E-1,-3.7121337E-2,5.306793E-1,1.3301419E-1,2.1177894E-2,9.802719E-1,1.35540515E-2,-4.2794038E-2,4.055964E-2,-4.1091364E-2,-1.2925856E-1,-5.219304E-1,5.2446556E-1,-1.6723327E-1,9.132492E-2,-2.6830356E-3,-3.2926317E-2,2.969302E-2,6.886773E-2,-4.671814E-3,3.9904907E-2,1.0451303E-1,2.9171878E-2,-3.816804E-2,-1.9959297E-2,-5.3664517E-2,7.172757E-2,-3.0893296E-2,-4.18279E-2,1.5897088E-2],"categories":[],"categories_nodes":[],"categories_segments":[],"categories_sizes":[],"default_left":[0,0,0,0,0,0,0,0,0,0,0,0,0,0,0,0,0,0,0,0,0,0,0,0,0,0,0,0,0,0,0,0,0,0,0,0,0,0,0,0,0,0,0,0,0,0,0,0,0,0,0,0,0,0,0,0,0],"id":28,"left_children":[1,3,5,7,9,11,-1,13,15,17,19,21,23,-1,25,27,29,31,-1,33,-1,35,37,-1,39,-1,-1,41,43,45,-1,-1,47,-1,-1,-1,-1,49,51,53,55,-1,-1,-1,-1,-1,-1,-1,-1,-1,-1,-1,-1,-1,-1,-1,-1],"loss_changes":[1.5779573E3,3.269081E3,3.399231E0,2.118898E2,6.311035E-1,2.8443675E0,0E0,3.3736145E1,2.5464935E0,5.4003906E-1,8.838907E0,8.172035E-1,1.620315E0,0E0,7.216625E0,1.1710126E0,1.7587585E0,2.92511E-1,0E0,4.229891E-1,0E0,1.0805247E0,3.138075E-1,0E0,1.523907E0,0E0,0E0,8.364706E-1,4.10115E-1,5.606762E-1,0E0,0E0,8.4160805E-2,0E0,0E0,0E0,0E0,5.349797E-1,6.002903E-2,1.4361651E0,5.4541904E-1,0E0,0E0,0E0,0E0,0E0,0E0,0E0,0E0,0E0,0E0,0E0,0E0,0E0,0E0,0E0,0E0],"parents":[2147483647,0,0,1,1,2,2,3,3,4,4,5,5,7,7,8,8,9,9,10,10,11,11,12,12,14,14,15,15,16,16,17,17,19,19,21,21,22,22,24,24,27,27,28,28,29,29,32,32,37,37,38,38,39,39,40,40],"right_children":[2,4,6,8,10,12,-1,14,16,18,20,22,24,-1,26,28,30,32,-1,34,-1,36,38,-1,40,-1,-1,42,44,46,-1,-1,48,-1,-1,-1,-1,50,52,54,56,-1,-1,-1,-1,-1,-1,-1,-1,-1,-1,-1,-1,-1,-1,-1,-1],"split_conditions":[5.433E1,3.533E1,5.6E1,1.58E2,2.396E2,7.75E1,-5.7154574E-2,1.55E2,1.642E2,3.6E1,3.968525E2,1.59E1,5.5E1,-5.6975525E-2,2.64E2,3.8E1,5.5E0,1.167E2,1.3333808E-1,2.82E2,1.2914397E-1,1.44E0,6.13E1,-4.5149576E-2,1E0,1.2962127E-1,-4.1689727E-2,1E0,4E0,3.72E1,1.3301419E-1,2.1177894E-2,2.25E1,1.35540515E-2,-4.2794038E-2,4.055964E-2,-4.1091364E-2,1.488E2,5E0,9.6E1,1.011E3,9.132492E-2,-2.6830356E-3,-3.2926317E-2,2.969302E-2,6.886773E-2,-4.671814E-3,3.9904907E-2,1.0451303E-1,2.9171878E-2,-3.816804E-2,-1.9959297E-2,-5.3664517E-2,7.172757E-2,-3.0893296E-2,-4.18279E-2,1.5897088E-2],"split_indices":[4,4,4,2,3,3,0,3,2,4,3,10,4,0,3,3,5,0,0,3,0,12,3,0,16,0,0,16,18,3,0,0,2,0,0,0,0,0,5,5,8,0,0,0,0,0,0,0,0,0,0,0,0,0,0,0,0],"split_type":[0,0,0,0,0,0,0,0,0,0,0,0,0,0,0,0,0,0,0,0,0,0,0,0,0,0,0,0,0,0,0,0,0,0,0,0,0,0,0,0,0,0,0,0,0,0,0,0,0,0,0,0,0,0,0,0,0],"sum_hessian":[6.7814917E3,3.9319656E3,2.849526E3,1.9782574E3,1.9537083E3,5.6813046E1,2.792713E3,1.9082295E3,7.002796E1,1.930056E3,2.365215E1,4.1745914E1,1.5067131E1,1.8946562E3,1.3573311E1,8.626844E0,6.1401115E1,1.3474676E1,1.9165814E3,4.2370467E0,1.9415104E1,4.5209355E0,3.7224976E1,3.6602862E0,1.1406845E1,1.0995726E1,2.5775857E0,6.426255E0,2.200589E0,4.793231E0,5.6607883E1,1.1787426E0,1.2295934E1,1.4633455E0,2.7737012E0,2.0348341E0,2.4861014E0,2.9866452E0,3.423833E1,6.5586076E0,4.8482375E0,5.380655E0,1.0456004E0,1.1815815E0,1.0190076E0,3.612097E0,1.181134E0,1.95239E0,1.0343544E1,1.0611796E0,1.9254657E0,2.1305833E0,3.210775E1,5.439495E0,1.1191126E0,2.580235E0,2.2680025E0],"tree_param":{"num_deleted":"0","num_feature":"19","num_nodes":"57","size_leaf_vector":"1"}},{"base_weights":[8.7036216E-4,-5.647207E-1,7.2176945E-1,-5.68898E-1,9.891931E-2,1.3258078E0,-3.4689686E-1,-5.7148706E-2,-1.619314E-1,1.0472459E0,-3.540138E-1,4.4360337E-1,1.336421E-1,5.607691E-1,-4.551456E-1,-5.4281022E-2,8.473662E-1,1.1302482E0,3.4663573E-2,-5.341014E-2,2.9118586E-1,-1.9927426E-1,8.5225403E-1,1.5645273E0,-5.3464115E-2,1.592006E-1,-4.8546982E-1,1.1107647E-1,1.368542E-2,3.6728375E-2,1.23711936E-1,-3.606018E-2,8.049732E-2,6.162845E-2,-5.0317246E-2,4.30326E-1,1.20065E0,1.3188939E-1,1.7564131E0,1.2022411E-1,-4.9501947E-1,7.9557516E-2,-4.326778E-2,2.921848E-2,1.3751142E-1,1.2971844E-1,2.0352028E-1,1.9692759E-1,-5.0035834E-2],"categories":[],"categories_nodes":[],"categories_segments":[],"categories_sizes":[],"default_left":[0,0,0,0,0,0,0,0,0,0,0,0,0,0,0,0,0,0,0,0,0,0,0,0,0,0,0,0,0,0,0,0,0,0,0,0,0,0,0,0,0,0,0,0,0,0,0,0,0],"id":29,"left_children":[1,3,5,7,9,11,13,-1,15,17,19,21,-1,23,25,-1,27,29,-1,-1,31,33,35,37,-1,-1,39,-1,-1,-1,-1,-1,-1,-1,-1,41,43,-1,45,-1,47,-1,-1,-1,-1,-1,-1,-1,-1],"loss_changes":[2.7666516E3,1.059729E1,1.9261223E3,3.888794E0,1.0952583E1,1.7253906E1,1.0617746E2,0E0,1.0179068E1,8.598232E-2,2.1796138E0,6.515738E0,0E0,1.27630905E2,6.059961E1,0E0,1.2174106E0,1.08504295E-1,0E0,0E0,1.7799761E0,2.837607E0,1.6820459E0,5.318146E-1,0E0,0E0,1.5913223E1,0E0,0E0,0E0,0E0,0E0,0E0,0E0,0E0,2.9678802E0,8.081589E-1,0E0,1.3176651E0,0E0,1.3428711E1,0E0,0E0,0E0,0E0,0E0,0E0,0E0,0E0],"parents":[2147483647,0,0,1,1,2,2,3,3,4,4,5,5,6,6,8,8,9,9,10,10,11,11,13,13,14,14,16,16,17,17,20,20,21,21,22,22,23,23,26,26,35,35,36,36,38,38,40,40],"right_children":[2,4,6,8,10,12,14,-1,16,18,20,22,-1,24,26,-1,28,30,-1,-1,32,34,36,38,-1,-1,40,-1,-1,-1,-1,-1,-1,-1,-1,42,44,-1,46,-1,48,-1,-1,-1,-1,-1,-1,-1,-1],"split_conditions":[9.3E1,3.42E2,3.03E2,2.11E2,5.5E0,9.4E1,3E0,-5.7148706E-2,7.219E2,1.444E3,1.774E2,1.171E2,1.336421E-1,2.3E1,7E1,-5.4281022E-2,2.1E1,4.167E1,3.4663573E-2,-5.341014E-2,3E0,1.138E2,7E0,1E0,-5.3464115E-2,1.592006E-1,1.83E1,1.1107647E-1,1.368542E-2,3.6728375E-2,1.23711936E-1,-3.606018E-2,8.049732E-2,6.162845E-2,-5.0317246E-2,3.67E1,7.2E1,1.3188939E-1,1.014E3,1.2022411E-1,1.015E3,7.9557516E-2,-4.326778E-2,2.921848E-2,1.3751142E-1,1.2971844E-1,2.0352028E-1,1.9692759E-1,-5.0035834E-2],"split_indices":[4,3,3,2,5,4,15,0,0,0,0,3,0,13,9,0,1,4,0,0,18,3,14,15,0,0,1,0,0,0,0,0,0,0,0,1,9,0,8,0,8,0,0,0,0,0,0,0,0],"split_type":[0,0,0,0,0,0,0,0,0,0,0,0,0,0,0,0,0,0,0,0,0,0,0,0,0,0,0,0,0,0,0,0,0,0,0,0,0,0,0,0,0,0,0,0,0,0,0,0,0],"sum_hessian":[6.783432E3,3.8012932E3,2.982139E3,3.7776572E3,2.363595E1,1.9050908E3,1.0770482E3,3.7533748E3,2.428252E1,7.2157874E0,1.6420164E1,2.3155334E1,1.8819355E3,1.1431727E2,9.627309E2,1.7965185E1,6.3173356E0,5.903193E0,1.3125942E0,1.29717045E1,3.4484591E0,9.197868E0,1.3957465E1,5.9430763E1,5.48865E1,1.3300943E1,9.4942993E2,4.1978087E0,2.1195266E0,1.2703959E0,4.6327972E0,1.6515113E0,1.7969478E0,2.2178874E0,6.9799814E0,7.323472E0,6.633993E0,2.9518011E1,2.991275E1,4.6392527E0,9.447907E2,5.200568E0,2.122904E0,1.4996755E0,5.1343174E0,1.3435083E1,1.6477669E1,1.2472211E0,9.4354346E2],"tree_param":{"num_deleted":"0","num_feature":"19","num_nodes":"49","size_leaf_vector":"1"}},{"base_weights":[-6.1971025E-4,1.1782153E0,-5.657007E-2,1.1823456E0,-4.769517E-2,1.1889644E0,7.614851E-1,1.1898607E0,-2.986887E-2,-3.6903515E-2,8.2805896E-1,1.190434E-1,5.5915322E-2,8.7737405E-1,-3.7184227E-2,-3.242491E-2,9.3295515E-2],"categories":[],"categories_nodes":[],"categories_segments":[],"categories_sizes":[],"default_left":[0,0,0,0,0,0,0,0,0,0,0,0,0,0,0,0,0],"id":30,"left_children":[1,3,-1,5,-1,7,9,11,-1,-1,13,-1,-1,15,-1,-1,-1],"loss_changes":[4.3753916E3,1.5114014E1,0E0,5.009033E0,0E0,3.140625E0,2.9892464E0,8.959961E-2,0E0,0E0,2.3370914E0,0E0,0E0,2.50239E0,0E0,0E0,0E0],"parents":[2147483647,0,0,1,1,3,3,5,5,6,6,7,7,10,10,13,13],"right_children":[2,4,-1,6,-1,8,10,12,-1,-1,14,-1,-1,16,-1,-1,-1],"split_conditions":[1.273E1,1.113E2,-5.657007E-2,1.214E1,-4.769517E-2,5.38E1,1.001E3,1.09E2,-2.986887E-2,-3.6903515E-2,2.25E1,1.190434E-1,5.5915322E-2,2.189E2,-3.7184227E-2,-3.242491E-2,9.3295515E-2],"split_indices":[4,2,0,4,0,3,8,2,0,0,3,0,0,0,0,0,0],"split_type":[0,0,0,0,0,0,0,0,0,0,0,0,0,0,0,0,0],"sum_hessian":[6.5663027E3,2.1273271E3,4.4389756E3,2.1223167E3,5.010446E0,2.0876597E3,3.465708E1,2.0866025E3,1.0570607E0,1.6747186E0,3.2982365E1,2.083821E3,2.78148E0,3.1938509E1,1.0438552E0,1.1983006E0,3.0740208E1],"tree_param":{"num_deleted":"0","num_feature":"19","num_nodes":"17","size_leaf_vector":"1"}},{"base_weights":[-7.648779E-6,-5.6562115E-2,1.1223012E0,-5.4826926E-2,1.1427236E0,-5.2698065E-2,1.1527629E0,-4.8905473E-2,1.1575217E0,-4.7403097E-2,1.1606349E0,-5.7461884E-2,1.16337314E-1],"categories":[],"categories_nodes":[],"categories_segments":[],"categories_sizes":[],"default_left":[0,0,0,0,0,0,0,0,0,0,0,0,0],"id":31,"left_children":[1,-1,3,-1,5,-1,7,-1,9,-1,11,-1,-1],"loss_changes":[4.1788525E3,0E0,7.588623E1,0E0,3.71438E1,0E0,1.7496338E1,0E0,1.1526123E1,0E0,1.0918457E1,0E0,0E0],"parents":[2147483647,0,0,2,2,4,4,6,6,8,8,10,10],"right_children":[2,-1,4,-1,6,-1,8,-1,10,-1,12,-1,-1],"split_conditions":[3.03E2,-5.6562115E-2,1.014E3,-5.4826926E-2,1E0,-5.2698065E-2,1.53E1,-4.8905473E-2,1.93E1,-4.7403097E-2,6.3E1,-5.7461884E-2,1.16337314E-1],"split_indices":[3,0,8,0,15,0,5,0,1,0,9,0,0],"split_type":[0,0,0,0,0,0,0,0,0,0,0,0,0],"sum_hessian":[6.5810156E3,4.3760835E3,2.2049324E3,2.6317156E1,2.1786152E3,1.271318E1,2.165902E3,5.965582E0,2.1599365E3,3.8254309E0,2.156111E3,3.0680327E0,2.153043E3],"tree_param":{"num_deleted":"0","num_feature":"19","num_nodes":"13","size_leaf_vector":"1"}},{"base_weights":[-3.0397435E-4,6.5250224E-1,-5.656717E-2,-5.401162E-1,1.1462865E0,-5.614861E-1,9.702002E-1,1.1689626E0,-5.4824848E-2,-5.623586E-2,3.721468E-3,1.14189625E-1,8.034054E-4,1.1743844E0,-2.8173155E-1,4.827591E-1,1.183989E0,-4.966067E-2,6.276834E-2,5.7982016E-2,-3.518489E-2,1.1880703E-1,3.594642E-2],"categories":[],"categories_nodes":[],"categories_segments":[],"categories_sizes":[],"default_left":[0,0,0,0,0,0,0,0,0,0,0,0,0,0,0,0,0,0,0,0,0,0,0],"id":32,"left_children":[1,3,-1,5,7,9,11,13,-1,-1,-1,-1,-1,15,17,19,21,-1,-1,-1,-1,-1,-1],"loss_changes":[2.4246562E3,1.7961597E3,0E0,2.9380737E1,8.350781E1,4.814453E-1,2.1106234E0,1.7071533E1,0E0,0E0,0E0,0E0,0E0,1.3515625E1,2.0179381E0,2.6938162E0,6.609131E0,0E0,0E0,0E0,0E0,0E0,0E0],"parents":[2147483647,0,0,1,1,3,3,4,4,5,5,6,6,7,7,13,13,14,14,15,15,16,16],"right_children":[2,4,-1,6,8,10,12,14,-1,-1,-1,-1,-1,16,18,20,22,-1,-1,-1,-1,-1,-1],"split_conditions":[3.6E1,1.214E1,-5.656717E-2,1.09E2,1.642E2,5.38E1,1.25E2,1.55E2,-5.4824848E-2,-5.623586E-2,3.721468E-3,1.14189625E-1,8.034054E-4,1.273E1,3.14E2,1.25E2,3.533E1,-4.966067E-2,6.276834E-2,5.7982016E-2,-3.518489E-2,1.1880703E-1,3.594642E-2],"split_indices":[4,4,0,2,2,3,5,3,0,0,0,0,0,4,3,5,4,0,0,0,0,0,0],"split_type":[0,0,0,0,0,0,0,0,0,0,0,0,0,0,0,0,0,0,0,0,0,0,0],"sum_hessian":[6.567538E3,3.047994E3,3.519544E3,8.924352E2,2.1555588E3,8.8060345E2,1.1831697E1,2.1274004E3,2.8158455E1,8.793826E2,1.2208242E0,9.881561E0,1.9501363E0,2.119669E3,7.7314906E0,2.9735338E1,2.0899336E3,6.621015E0,1.1104758E0,2.6910992E1,2.8243463E0,2.0792012E3,1.0732443E1],"tree_param":{"num_deleted":"0","num_feature":"19","num_nodes":"23","size_leaf_vector":"1"}},{"base_weights":[-1.7701957E-4,-5.557881E-1,3.840973E-1,-5.6203365E-1,2.5162414E-1,1.1811197E0,-5.6557495E-2,-5.64596E-1,-2.9915625E-1,1.0937182E0,-5.216502E-2,1.1855254E0,8.42396E-1,-5.655505E-2,-3.1584978E-1,-5.4254647E-2,8.862747E-1,3.522198E-2,1.1743744E-1,1.070772E0,1.1917823E-1,1.0967767E0,4.4684538E-1,2.8586766E-1,-5.0965417E-2,7.1609216E-3,1.1290573E-1,1.0810201E0,3.6057064E-3,5.354486E-1,1.20728746E-1,6.016322E-1,-3.7735354E-2,6.1406285E-2,-2.9111413E-2,1.1354399E-1,8.6003505E-2,-3.4056775E-2,9.118582E-2,1.0183314E-1,4.795224E-3],"categories":[],"categories_nodes":[],"categories_segments":[],"categories_sizes":[],"default_left":[0,0,0,0,0,0,0,0,0,0,0,0,0,0,0,0,0,0,0,0,0,0,0,0,0,0,0,0,0,0,0,0,0,0,0,0,0,0,0,0,0],"id":33,"left_children":[1,3,5,7,9,11,-1,13,15,17,-1,19,21,-1,23,-1,25,-1,-1,27,-1,29,31,33,-1,-1,-1,35,-1,37,-1,39,-1,-1,-1,-1,-1,-1,-1,-1,-1],"loss_changes":[1.4023652E3,1.3683411E1,2.9395977E3,1.6263428E0,1.4442957E1,2.1523438E0,0E0,4.477539E-1,8.517312E0,2.1558857E-1,0E0,2.1850586E-1,2.5854073E0,0E0,1.5859097E0,0E0,9.3269444E-1,0E0,0E0,1.2068329E0,0E0,4.648552E-1,1.9685161E0,8.6981916E-1,0E0,0E0,0E0,4.2211914E-1,0E0,1.8747635E0,0E0,2.6916003E0,0E0,0E0,0E0,0E0,0E0,0E0,0E0,0E0,0E0],"parents":[2147483647,0,0,1,1,2,2,3,3,4,4,5,5,7,7,8,8,9,9,11,11,12,12,14,14,16,16,19,19,21,21,22,22,23,23,27,27,29,29,31,31],"right_children":[2,4,6,8,10,12,-1,14,16,18,-1,20,22,-1,24,-1,26,-1,-1,28,-1,30,32,34,-1,-1,-1,36,-1,38,-1,40,-1,-1,-1,-1,-1,-1,-1,-1,-1],"split_conditions":[5.433E1,2.5E2,9.4E1,5.4E1,3.3E2,9.3E1,-5.6557495E-2,2.11E2,6.05E2,2.64E2,-5.216502E-2,5.6E1,1.171E2,-5.655505E-2,2.2E1,-5.4254647E-2,2.29E1,3.522198E-2,1.1743744E-1,1.307E2,1.1917823E-1,5.2E1,9.3E1,1.77E1,-5.0965417E-2,7.1609216E-3,1.1290573E-1,7.75E1,3.6057064E-3,1.138E2,1.20728746E-1,7E0,-3.7735354E-2,6.1406285E-2,-2.9111413E-2,1.1354399E-1,8.6003505E-2,-3.4056775E-2,9.118582E-2,1.0183314E-1,4.795224E-3],"split_indices":[4,3,4,4,3,4,0,2,0,3,0,4,3,0,4,0,10,0,0,3,0,9,9,1,0,0,0,3,0,3,0,14,0,0,0,0,0,0,0,0,0],"split_type":[0,0,0,0,0,0,0,0,0,0,0,0,0,0,0,0,0,0,0,0,0,0,0,0,0,0,0,0,0,0,0,0,0,0,0,0,0,0,0,0,0],"sum_hessian":[6.566238E3,2.684439E3,3.881799E3,2.6641353E3,2.0303846E1,2.1103892E3,1.7714099E3,2.6372812E3,2.6853882E1,9.521048E0,1.0782798E1,2.0808237E3,2.9565334E1,2.6259312E3,1.135013E1,2.272944E1,4.1244407E0,1.4605622E0,8.060486E0,1.1648769E2,1.964336E3,1.6914648E1,1.2650688E1,2.649382E0,8.700748E0,1.2442542E0,2.8801866E0,1.1530097E2,1.1867176E0,3.743767E0,1.317088E1,1.087784E1,1.7728479E0,1.6478148E0,1.0015674E0,8.91972E1,2.6103775E1,1.1537861E0,2.5899808E0,5.7278543E0,5.149986E0],"tree_param":{"num_deleted":"0","num_feature":"19","num_nodes":"41","size_leaf_vector":"1"}},{"base_weights":[-4.7132504E-5,3.84428E-1,-5.6038994E-1,-4.8779127E-1,1.1834002E0,-3.0022386E-1,-5.6567598E-2,-5.5203414E-1,1.0784727E0,8.39351E-1,1.1855251E0,-4.352377E-1,6.4607374E-2,-5.6375254E-2,8.7556636E-1,4.0180114E-1,1.1266998E0,4.3926492E-1,9.565001E-1,1.1882498E-1,9.175935E-1,-2.3925697E-2,-4.847991E-1,-4.4229835E-2,2.4284205E-1,1.1608221E-1,-4.0829733E-2,5.9132046E-1,-3.097758E-2,6.19392E-1,1.18683495E-1,8.1698E-1,-4.0792104E-2,1.207341E-2,1.0558114E0,-2.2606097E-1,1.1472603E0,3.9947324E-2,-4.0114455E-2,-1.1628158E-1,-5.134068E-1,5.770493E-1,-7.8213945E-2,2.131446E-2,8.5350744E-2,7.9789065E-2,-8.540814E-4,-4.2660064E-3,1.1170965E-1,2.1887047E-2,1.12958185E-1,1.2673023E-2,-4.1294213E-2,3.97665E-2,1.19732976E-1,3.019352E-2,-3.7442677E-2,-5.4696452E-2,-3.0050237E-2,-1.21915145E-2,8.281091E-2,-3.6808796E-2,5.5433925E-2],"categories":[],"categories_nodes":[],"categories_segments":[],"categories_sizes":[],"default_left":[0,0,0,0,0,0,0,0,0,0,0,0,0,0,0,0,0,0,0,0,0,0,0,0,0,0,0,0,0,0,0,0,0,0,0,0,0,0,0,0,0,0,0,0,0,0,0,0,0,0,0,0,0,0,0,0,0,0,0,0,0,0,0],"id":34,"left_children":[1,3,5,7,9,11,-1,13,15,17,19,21,23,-1,25,27,29,31,33,-1,35,37,39,-1,41,-1,-1,43,-1,45,-1,47,-1,-1,49,51,53,-1,-1,55,57,59,61,-1,-1,-1,-1,-1,-1,-1,-1,-1,-1,-1,-1,-1,-1,-1,-1,-1,-1,-1,-1],"loss_changes":[1.415248E3,2.7156E3,3.5064697E0,1.8808475E2,4.9145508E-1,2.7551613E0,0E0,3.0448242E1,1.9541779E0,3.2543278E-1,3.8354492E-1,8.1478167E-1,1.5371679E0,0E0,5.9563303E0,1.0545067E0,1.3483047E0,2.0779417E0,8.233452E-1,0E0,6.7506523E0,1.0245097E0,3.21167E-1,0E0,1.3706849E0,0E0,0E0,3.5806382E-1,0E0,1.0524533E0,0E0,1.1064467E0,0E0,0E0,3.7695885E-1,3.7989795E-1,3.0247307E-1,0E0,0E0,5.3359014E-1,7.306194E-2,1.184083E0,1.5208508E0,0E0,0E0,0E0,0E0,0E0,0E0,0E0,0E0,0E0,0E0,0E0,0E0,0E0,0E0,0E0,0E0,0E0,0E0,0E0,0E0],"parents":[2147483647,0,0,1,1,2,2,3,3,4,4,5,5,7,7,8,8,9,9,10,10,11,11,12,12,14,14,15,15,16,16,17,17,18,18,20,20,21,21,22,22,24,24,27,27,29,29,31,31,34,34,35,35,36,36,39,39,40,40,41,41,42,42],"right_children":[2,4,6,8,10,12,-1,14,16,18,20,22,24,-1,26,28,30,32,34,-1,36,38,40,-1,42,-1,-1,44,-1,46,-1,48,-1,-1,50,52,54,-1,-1,56,58,60,62,-1,-1,-1,-1,-1,-1,-1,-1,-1,-1,-1,-1,-1,-1,-1,-1,-1,-1,-1,-1],"split_conditions":[5.433E1,3.533E1,5.6E1,1.58E2,3.6E1,7.75E1,-5.6567598E-2,1.55E2,2.5E1,5E1,2.396E2,1.59E1,5.5E1,-5.6375254E-2,2.64E2,5E0,1.642E2,8.8E1,5.9E1,1.1882498E-1,3.968525E2,1.44E0,6.13E1,-4.4229835E-2,4E0,1.1608221E-1,-4.0829733E-2,2.2E1,-3.097758E-2,3.8E1,1.18683495E-1,1.009E3,-4.0792104E-2,1.207341E-2,3E0,2.82E2,8E-1,3.9947324E-2,-4.0114455E-2,1.33E1,7.33E1,8.3E-1,9E-1,2.131446E-2,8.5350744E-2,7.9789065E-2,-8.540814E-4,-4.2660064E-3,1.1170965E-1,2.1887047E-2,1.12958185E-1,1.2673023E-2,-4.1294213E-2,3.97665E-2,1.19732976E-1,3.019352E-2,-3.7442677E-2,-5.4696452E-2,-3.0050237E-2,-1.21915145E-2,8.281091E-2,-3.6808796E-2,5.5433925E-2],"split_indices":[4,4,4,2,4,3,0,3,5,3,3,10,4,0,3,5,2,6,6,0,3,12,3,0,18,0,0,4,0,3,0,8,0,0,13,3,12,0,0,1,3,12,11,0,0,0,0,0,0,0,0,0,0,0,0,0,0,0,0,0,0,0,0],"split_type":[0,0,0,0,0,0,0,0,0,0,0,0,0,0,0,0,0,0,0,0,0,0,0,0,0,0,0,0,0,0,0,0,0,0,0,0,0,0,0,0,0,0,0,0,0,0,0,0,0,0,0,0,0,0,0,0,0,0,0,0,0,0,0],"sum_hessian":[6.5671704E3,3.8949753E3,2.6721948E3,1.8623169E3,2.0326584E3,5.4363255E1,2.6178315E3,1.7895626E3,7.275428E1,1.4907701E1,2.0177507E3,3.9538265E1,1.4824992E1,1.7755929E3,1.3969764E1,5.46111E0,6.729317E1,4.4522066E0,1.0455494E1,1.994037E3,2.3713745E1,4.4113154E0,3.512695E1,3.471207E0,1.13537855E1,1.1508566E1,2.4611979E0,4.4459805E0,1.0151296E0,8.328966E0,5.8964203E1,3.1039672E0,1.3482393E0,1.3457654E0,9.109729E0,3.9683833E0,1.9745361E1,2.0506377E0,2.360678E0,2.8952854E0,3.2231663E1,5.172284E0,6.1815014E0,2.562625E0,1.8833556E0,6.274647E0,2.0543191E0,1.025222E0,2.0787451E0,1.0592477E0,8.050481E0,1.4856553E0,2.482728E0,1.7962221E0,1.794914E1,1.040292E0,1.8549933E0,2.6487648E1,5.744014E0,1.5028007E0,3.6694832E0,4.525662E0,1.6558394E0],"tree_param":{"num_deleted":"0","num_feature":"19","num_nodes":"63","size_leaf_vector":"1"}},{"base_weights":[1.1546485E-3,-5.585266E-1,6.643022E-1,-5.6287473E-1,9.849701E-2,1.1821191E0,-3.3541355E-1,-5.6559283E-2,-1.485241E-1,9.4986796E-1,-3.4297717E-1,4.137072E-1,1.1911148E-1,5.276766E-1,-4.4438314E-1,-5.357048E-2,7.9114527E-1,1.0235952E0,3.201749E-2,-5.268268E-2,2.7819958E-1,-1.8959501E-1,7.723148E-1,1.389747E0,-5.2675933E-2,1.4160335E-1,-4.7519112E-1,1.0253989E0,1.3323048E-1,3.420889E-2,1.1166122E-1,-3.523951E-2,7.46054E-2,5.664352E-1,-4.9492553E-2,-3.0813158E-2,8.707711E-1,1.1770987E-1,1.5518757E0,1.1619838E-1,-4.8513016E-1,3.556236E-2,1.15684405E-1,5.443072E-2,-3.1591572E-2,1.10326126E-1,-3.3365816E-2,4.6336412E-2,1.1846136E-1,1.1591344E-1,1.7804772E-1,1.7654459E-1,-4.9071535E-2],"categories":[],"categories_nodes":[],"categories_segments":[],"categories_sizes":[],"default_left":[0,0,0,0,0,0,0,0,0,0,0,0,0,0,0,0,0,0,0,0,0,0,0,0,0,0,0,0,0,0,0,0,0,0,0,0,0,0,0,0,0,0,0,0,0,0,0,0,0,0,0,0,0],"id":35,"left_children":[1,3,5,7,9,11,13,-1,15,17,19,21,-1,23,25,-1,27,29,-1,-1,31,33,35,37,-1,-1,39,41,43,-1,-1,-1,-1,45,-1,-1,47,-1,49,-1,51,-1,-1,-1,-1,-1,-1,-1,-1,-1,-1,-1,-1],"loss_changes":[2.4396318E3,1.0239258E1,1.5578E3,3.904419E0,9.454222E0,1.320874E1,9.685681E1,0E0,9.314054E0,6.9610596E-2,2.0569818E0,5.440131E0,0E0,1.0583429E2,5.2986008E1,0E0,1.0245452E0,7.4846745E-2,0E0,0E0,1.583082E0,2.5713992E0,1.9217777E0,3.7597656E-1,0E0,0E0,1.5185715E1,6.459141E-2,7.4940723E-1,0E0,0E0,0E0,0E0,1.9730359E0,0E0,0E0,1.3059473E0,0E0,9.088745E-1,0E0,1.2102386E1,0E0,0E0,0E0,0E0,0E0,0E0,0E0,0E0,0E0,0E0,0E0,0E0],"parents":[2147483647,0,0,1,1,2,2,3,3,4,4,5,5,6,6,8,8,9,9,10,10,11,11,13,13,14,14,16,16,17,17,20,20,21,21,22,22,23,23,26,26,27,27,28,28,33,33,36,36,38,38,40,40],"right_children":[2,4,6,8,10,12,14,-1,16,18,20,22,-1,24,26,-1,28,30,-1,-1,32,34,36,38,-1,-1,40,42,44,-1,-1,-1,-1,46,-1,-1,48,-1,50,-1,52,-1,-1,-1,-1,-1,-1,-1,-1,-1,-1,-1,-1],"split_conditions":[9.3E1,3.42E2,3.03E2,2.11E2,5.5E0,9.4E1,3E0,-5.6559283E-2,7.219E2,1.444E3,1.774E2,1.171E2,1.1911148E-1,2.3E1,7E1,-5.357048E-2,2.1E1,4.167E1,3.201749E-2,-5.268268E-2,3E0,1.138E2,5.5E1,1E0,-5.2675933E-2,1.4160335E-1,1.47E1,6E-1,6E-1,3.420889E-2,1.1166122E-1,-3.523951E-2,7.46054E-2,5.2E1,-4.9492553E-2,-3.0813158E-2,7E0,1.1770987E-1,1.014E3,1.1619838E-1,1.015E3,3.556236E-2,1.15684405E-1,5.443072E-2,-3.1591572E-2,1.10326126E-1,-3.3365816E-2,4.6336412E-2,1.1846136E-1,1.1591344E-1,1.7804772E-1,1.7654459E-1,-4.9071535E-2],"split_indices":[4,3,3,2,5,4,15,0,0,0,0,3,0,13,9,0,1,4,0,0,18,3,9,15,0,0,5,11,11,0,0,0,0,9,0,0,14,0,8,0,8,0,0,0,0,0,0,0,0,0,0,0,0],"split_type":[0,0,0,0,0,0,0,0,0,0,0,0,0,0,0,0,0,0,0,0,0,0,0,0,0,0,0,0,0,0,0,0,0,0,0,0,0,0,0,0,0,0,0,0,0,0,0,0,0,0,0,0,0],"sum_hessian":[6.571148E3,3.5636594E3,3.0074885E3,3.5403726E3,2.3286915E1,1.9811443E3,1.0263442E3,3.5169368E3,2.3435682E1,7.558661E0,1.5728254E1,2.3468384E1,1.9576759E3,1.1462425E2,9.1172003E2,1.69015E1,6.534181E0,6.206437E0,1.3522238E0,1.2253482E1,3.474773E0,8.924905E0,1.454348E1,6.2889755E1,5.1734497E1,1.4119422E1,8.976006E2,4.4066234E0,2.1275578E0,1.3071389E0,4.899298E0,1.5850958E0,1.8896773E0,2.3214924E0,6.603412E0,1.0367457E0,1.3506734E1,3.0779518E1,3.2110237E1,4.7168875E0,8.928837E2,1.3308424E0,3.0757809E0,1.0002332E0,1.1273246E0,1.312803E0,1.0086895E0,6.954866E0,6.551868E0,1.4047295E1,1.8062943E1,1.430338E0,8.9145337E2],"tree_param":{"num_deleted":"0","num_feature":"19","num_nodes":"53","size_leaf_vector":"1"}},{"base_weights":[-7.7190105E-4,1.0679929E0,-5.6023784E-2,1.071576E0,-4.6876296E-2,1.077727E0,6.870658E-1,1.0785203E0,-2.922183E-2,-3.6563333E-2,7.4666566E-1,1.07902385E-1,5.1838934E-2,7.945549E-1,-3.4710046E-2,8.421714E-2,-3.6836606E-2],"categories":[],"categories_nodes":[],"categories_segments":[],"categories_sizes":[],"default_left":[0,0,0,0,0,0,0,0,0,0,0,0,0,0,0,0,0],"id":36,"left_children":[1,3,-1,5,-1,7,9,11,-1,-1,13,-1,-1,15,-1,-1,-1],"loss_changes":[3.7816804E3,1.2468262E1,0E0,4.3881836E0,0E0,2.6333008E0,2.5881176E0,4.1748047E-2,0E0,0E0,2.1222382E0,0E0,0E0,2.1971893E0,0E0,0E0,0E0],"parents":[2147483647,0,0,1,1,3,3,5,5,6,6,7,7,10,10,13,13],"right_children":[2,4,-1,6,-1,8,10,12,-1,-1,14,-1,-1,16,-1,-1,-1],"split_conditions":[1.273E1,1.113E2,-5.6023784E-2,1.214E1,-4.6876296E-2,5.38E1,1.001E3,1.09E2,-2.922183E-2,-3.6563333E-2,1.018E3,1.07902385E-1,5.1838934E-2,2.25E1,-3.4710046E-2,8.421714E-2,-3.6836606E-2],"split_indices":[4,2,0,4,0,3,8,2,0,0,8,0,0,3,0,0,0],"split_type":[0,0,0,0,0,0,0,0,0,0,0,0,0,0,0,0,0],"sum_hessian":[6.322541E3,2.1721355E3,4.1504053E3,2.1673848E3,4.750788E0,2.131485E3,3.589969E1,2.1304639E3,1.0211228E0,1.6484628E0,3.425123E1,2.1276248E3,2.8392045E0,3.307657E1,1.1746581E0,3.2040466E1,1.0361017E0],"tree_param":{"num_deleted":"0","num_feature":"19","num_nodes":"17","size_leaf_vector":"1"}},{"base_weights":[1.0962371E-5,-5.6014337E-2,1.0169024E0,-5.4198235E-2,1.0344561E0,-5.1993616E-2,1.0430819E0,-5.5741727E-2,1.0469363E0,-4.826569E-2,1.0502512E0,-4.8287254E-2,1.05276786E-1],"categories":[],"categories_nodes":[],"categories_segments":[],"categories_sizes":[],"default_left":[0,0,0,0,0,0,0,0,0,0,0,0,0],"id":37,"left_children":[1,-1,3,-1,5,-1,7,-1,9,-1,11,-1,-1],"loss_changes":[3.614421E3,0E0,6.2234863E1,0E0,3.04292E1,0E0,1.4260498E1,0E0,1.1724365E1,0E0,9.026123E0,0E0,0E0],"parents":[2147483647,0,0,2,2,4,4,6,6,8,8,10,10],"right_children":[2,-1,4,-1,6,-1,8,-1,10,-1,12,-1,-1],"split_conditions":[3.03E2,-5.6014337E-2,1.014E3,-5.4198235E-2,1E0,-5.1993616E-2,6.3E1,-5.5741727E-2,1.93E1,-4.826569E-2,1E0,-4.8287254E-2,1.05276786E-1],"split_indices":[3,0,8,0,15,0,9,0,1,0,13,0,0],"split_type":[0,0,0,0,0,0,0,0,0,0,0,0,0],"sum_hessian":[6.343363E3,4.0905396E3,2.2528232E3,2.4752573E1,2.2280706E3,1.1968831E1,2.2161018E3,4.9789896E0,2.2111228E3,4.469084E0,2.2066536E3,3.3034897E0,2.20335E3],"tree_param":{"num_deleted":"0","num_feature":"19","num_nodes":"13","size_leaf_vector":"1"}},{"base_weights":[-3.9981553E-4,6.0679185E-1,-5.602097E-2,-5.3375506E-1,1.0402347E0,-5.557308E-1,8.828478E-1,1.0597377E0,-5.4200202E-2,-5.5665547E-1,3.930579E-3,1.03519894E-1,5.826586E-4,1.064403E0,-2.6876223E-1,-2.2182392E-2,-5.571435E-2,4.4374675E-1,1.0730739E0,-4.8800986E-2,5.8929414E-2,-1.6968107E-2,5.6063093E-2,1.0767472E-1,3.327591E-2],"categories":[],"categories_nodes":[],"categories_segments":[],"categories_sizes":[],"default_left":[0,0,0,0,0,0,0,0,0,0,0,0,0,0,0,0,0,0,0,0,0,0,0,0,0],"id":38,"left_children":[1,3,-1,5,7,9,11,13,-1,15,-1,-1,-1,17,19,-1,-1,21,23,-1,-1,-1,-1,-1,-1],"loss_changes":[2.150581E3,1.5009432E3,0E0,2.6529572E1,6.844946E1,4.7538757E-1,1.7528353E0,1.3754883E1,0E0,1.0910034E-2,0E0,0E0,0E0,1.1178711E1,1.8684375E0,0E0,0E0,2.3568497E0,5.448242E0,0E0,0E0,0E0,0E0,0E0,0E0],"parents":[2147483647,0,0,1,1,3,3,4,4,5,5,6,6,7,7,9,9,13,13,14,14,17,17,18,18],"right_children":[2,4,-1,6,8,10,12,14,-1,16,-1,-1,-1,18,20,-1,-1,22,24,-1,-1,-1,-1,-1,-1],"split_conditions":[3.6E1,1.214E1,-5.602097E-2,1.09E2,1.642E2,5.38E1,1.25E2,1.55E2,-5.4200202E-2,2E0,3.930579E-3,1.03519894E-1,5.826586E-4,1.273E1,3.14E2,-2.2182392E-2,-5.571435E-2,1E0,3.533E1,-4.8800986E-2,5.8929414E-2,-1.6968107E-2,5.6063093E-2,1.0767472E-1,3.327591E-2],"split_indices":[4,4,0,2,2,3,5,3,0,5,0,0,0,4,3,0,0,13,4,0,0,0,0,0,0],"split_type":[0,0,0,0,0,0,0,0,0,0,0,0,0,0,0,0,0,0,0,0,0,0,0,0,0],"sum_hessian":[6.324878E3,3.0339995E3,3.2908784E3,8.354344E2,2.1985652E3,8.232707E2,1.2163677E1,2.1721213E3,2.6443867E1,8.2205774E2,1.2129515E0,1.0209742E1,1.9539362E0,2.1647183E3,7.4031415E0,1.8594357E0,8.201983E2,3.0544222E1,2.134174E3,6.2399836E0,1.1631579E0,4.816215E0,2.5728006E1,2.1231848E3,1.098917E1],"tree_param":{"num_deleted":"0","num_feature":"19","num_nodes":"25","size_leaf_vector":"1"}},{"base_weights":[-2.4060035E-4,-5.4991055E-1,3.6186618E-1,-5.563552E-1,2.4043655E-1,1.070408E0,-5.6011643E-2,-5.590645E-1,-2.832496E-1,9.999477E-1,-5.147931E-2,1.0743371E0,7.690846E-1,-5.600674E-2,-3.0465242E-1,-5.358519E-2,8.497713E-1,3.2919925E-2,1.0729609E-1,1.0760287E-1,7.888419E-1,9.9655837E-1,4.1350356E-1,2.688758E-1,-5.0190568E-2,1.0708644E-1,6.4377645E-3,-1.9314454E-1,9.9616784E-1,4.9468598E-1,1.0929978E-1,5.558491E-1,-3.7243113E-2,-4.8849233E-3,5.4128747E-2,6.5966765E-3,-3.5301384E-2,3.0557975E-2,1.0583893E-1,-3.348523E-2,8.427333E-2,9.2147104E-2,4.715173E-3],"categories":[],"categories_nodes":[],"categories_segments":[],"categories_sizes":[],"default_left":[0,0,0,0,0,0,0,0,0,0,0,0,0,0,0,0,0,0,0,0,0,0,0,0,0,0,0,0,0,0,0,0,0,0,0,0,0,0,0,0,0,0,0],"id":39,"left_children":[1,3,5,7,9,11,-1,13,15,17,-1,19,21,-1,23,-1,25,-1,-1,-1,27,29,31,33,-1,-1,-1,35,37,39,-1,41,-1,-1,-1,-1,-1,-1,-1,-1,-1,-1,-1],"loss_changes":[1.2589805E3,1.2928833E1,2.4916475E3,1.6856079E0,1.256984E1,1.7268066E0,0E0,4.5861816E-1,8.041572E0,1.7659187E-1,0E0,1.7797852E-1,2.1178074E0,0E0,1.4786477E0,0E0,8.372967E-1,0E0,0E0,0E0,3.505083E0,3.482113E-1,1.7633905E0,3.45884E-1,0E0,0E0,0E0,1.7548159E-1,2.6084042E-1,1.6643108E0,0E0,2.221874E0,0E0,0E0,0E0,0E0,0E0,0E0,0E0,0E0,0E0,0E0,0E0],"parents":[2147483647,0,0,1,1,2,2,3,3,4,4,5,5,7,7,8,8,9,9,11,11,12,12,14,14,16,16,20,20,21,21,22,22,23,23,27,27,28,28,29,29,31,31],"right_children":[2,4,6,8,10,12,-1,14,16,18,-1,20,22,-1,24,-1,26,-1,-1,-1,28,30,32,34,-1,-1,-1,36,38,40,-1,42,-1,-1,-1,-1,-1,-1,-1,-1,-1,-1,-1],"split_conditions":[5.433E1,2.5E2,9.4E1,5.4E1,3.3E2,9.3E1,-5.6011643E-2,2.11E2,6.05E2,2.64E2,-5.147931E-2,3.42E2,1.171E2,-5.600674E-2,2.2E1,-5.358519E-2,3.67E1,3.2919925E-2,1.0729609E-1,1.0760287E-1,5.5E0,5.2E1,9.3E1,5.419E2,-5.0190568E-2,1.0708644E-1,6.4377645E-3,6.7E1,5.7E1,1.138E2,1.0929978E-1,7E0,-3.7243113E-2,-4.8849233E-3,5.4128747E-2,6.5966765E-3,-3.5301384E-2,3.0557975E-2,1.0583893E-1,-3.348523E-2,8.427333E-2,9.2147104E-2,4.715173E-3],"split_indices":[4,3,4,4,3,4,0,2,0,3,0,3,3,0,4,0,1,0,0,0,5,9,9,0,0,0,0,4,4,3,0,14,0,0,0,0,0,0,0,0,0,0,0],"split_type":[0,0,0,0,0,0,0,0,0,0,0,0,0,0,0,0,0,0,0,0,0,0,0,0,0,0,0,0,0,0,0,0,0,0,0,0,0,0,0,0,0,0,0],"sum_hessian":[6.323289E3,2.511051E3,3.8122378E3,2.491035E3,2.001632E1,2.1555447E3,1.6566931E3,2.4655286E3,2.5506363E1,9.818313E0,1.0198006E1,2.1252673E3,3.0277445E1,2.4546511E3,1.0877432E1,2.128747E1,4.2188945E0,1.5046194E0,8.313694E0,2.109996E3,1.5271225E1,1.736562E1,1.2911826E1,2.6907575E0,8.186674E0,3.0085065E0,1.2103878E0,2.6740682E0,1.2597157E1,3.7870812E0,1.3578538E1,1.1179748E1,1.732079E0,1.6209061E0,1.0698513E0,1.2444584E0,1.4296098E0,1.5297561E0,1.10674E1,1.1305155E0,2.6565657E0,6.0325027E0,5.1472445E0],"tree_param":{"num_deleted":"0","num_feature":"19","num_nodes":"43","size_leaf_vector":"1"}},{"base_weights":[-6.808922E-5,3.6249614E-1,-5.546115E-1,-4.8060125E-1,1.072568E0,-2.8637254E-1,-5.6020986E-2,-5.461416E-1,9.819674E-1,7.6257855E-1,1.074525E0,-4.237177E-1,6.8344034E-2,-5.581486E-2,8.035853E-1,3.7250245E-1,1.0254425E0,8.3432037E-1,2.9183355E-1,1.07692204E-1,8.37869E-1,-8.3022155E-2,-4.8915014E-1,-4.351076E-2,2.3878086E-1,1.0547596E-1,-3.9968323E-2,5.497774E-1,-3.0578202E-2,5.8882636E-1,1.0764821E-1,2.3462947E-2,9.011797E-2,-1.7749283E-2,6.717143E-2,-2.2096486E-1,1.0425452E0,6.231163E-2,-2.911994E-1,9.106047E-3,-5.248697E-1,4.8500273E-1,-1.4525019E-1,9.097549E-2,6.059272E-3,7.49365E-2,-2.1455983E-4,2.9544134E-2,-4.3084748E-2,3.7197035E-2,1.0864215E-1,-4.633675E-2,2.7571512E-2,-5.4371875E-2,-2.181009E-2,6.567926E-2,-3.0152509E-2,-4.0356055E-2,1.7158637E-2],"categories":[],"categories_nodes":[],"categories_segments":[],"categories_sizes":[],"default_left":[0,0,0,0,0,0,0,0,0,0,0,0,0,0,0,0,0,0,0,0,0,0,0,0,0,0,0,0,0,0,0,0,0,0,0,0,0,0,0,0,0,0,0,0,0,0,0,0,0,0,0,0,0,0,0,0,0,0,0],"id":40,"left_children":[1,3,5,7,9,11,-1,13,15,17,19,21,23,-1,25,27,29,31,33,-1,35,37,39,-1,41,-1,-1,43,-1,45,-1,-1,-1,-1,-1,47,49,-1,51,-1,53,55,57,-1,-1,-1,-1,-1,-1,-1,-1,-1,-1,-1,-1,-1,-1,-1,-1],"loss_changes":[1.2719904E3,2.2906377E3,3.595398E0,1.6824619E2,4.404297E-1,2.6197262E0,0E0,2.759668E1,1.6157761E0,3.128519E-1,2.668457E-1,8.170705E-1,1.4514298E0,0E0,5.0096045E0,9.6059406E-1,9.217377E-1,3.4013176E-1,7.818274E-1,0E0,5.6863747E0,1.2697159E0,7.124591E-1,0E0,1.2408816E0,0E0,0E0,9.279238E-1,0E0,9.041953E-1,0E0,0E0,0E0,0E0,0E0,6.587347E-1,2.2176361E-1,0E0,7.523292E-1,0E0,5.6959152E-2,1.24828E0,5.2799624E-1,0E0,0E0,0E0,0E0,0E0,0E0,0E0,0E0,0E0,0E0,0E0,0E0,0E0,0E0,0E0,0E0],"parents":[2147483647,0,0,1,1,2,2,3,3,4,4,5,5,7,7,8,8,9,9,10,10,11,11,12,12,14,14,15,15,16,16,17,17,18,18,20,20,21,21,22,22,24,24,27,27,29,29,35,35,36,36,38,38,40,40,41,41,42,42],"right_children":[2,4,6,8,10,12,-1,14,16,18,20,22,24,-1,26,28,30,32,34,-1,36,38,40,-1,42,-1,-1,44,-1,46,-1,-1,-1,-1,-1,48,50,-1,52,-1,54,56,58,-1,-1,-1,-1,-1,-1,-1,-1,-1,-1,-1,-1,-1,-1,-1,-1],"split_conditions":[5.433E1,3.533E1,5.6E1,1.58E2,3.6E1,7.75E1,-5.6020986E-2,1.55E2,2.5E1,1.8E1,2.396E2,6.88E1,5.5E1,-5.581486E-2,2.64E2,4.13E1,1.642E2,5.1E1,8E0,1.07692204E-1,3.968525E2,1.272E2,5E0,-4.351076E-2,1E0,1.0547596E-1,-3.9968323E-2,3.4E0,-3.0578202E-2,3.8E1,1.0764821E-1,2.3462947E-2,9.011797E-2,-1.7749283E-2,6.717143E-2,2.64E2,8E-1,6.231163E-2,6.63E1,9.106047E-3,2.88E0,9.6E1,1.011E3,9.097549E-2,6.059272E-3,7.49365E-2,-2.1455983E-4,2.9544134E-2,-4.3084748E-2,3.7197035E-2,1.0864215E-1,-4.633675E-2,2.7571512E-2,-5.4371875E-2,-2.181009E-2,6.567926E-2,-3.0152509E-2,-4.0356055E-2,1.7158637E-2],"split_indices":[4,4,4,2,4,3,0,3,5,13,3,3,4,0,3,3,2,6,14,0,3,0,5,0,16,0,0,11,0,3,0,0,0,0,0,3,12,0,3,0,12,5,8,0,0,0,0,0,0,0,0,0,0,0,0,0,0,0,0],"split_type":[0,0,0,0,0,0,0,0,0,0,0,0,0,0,0,0,0,0,0,0,0,0,0,0,0,0,0,0,0,0,0,0,0,0,0,0,0,0,0,0,0,0,0,0,0,0,0,0,0,0,0,0,0,0,0,0,0,0,0],"sum_hessian":[6.3244966E3,3.8244148E3,2.5000818E3,1.7485789E3,2.075836E3,5.2178204E1,2.4479036E3,1.6741823E3,7.4396576E1,1.5473203E1,2.0603628E3,3.74739E1,1.4704302E1,1.6600016E3,1.4180595E1,5.590679E0,6.880589E1,1.2756729E1,2.7164736E0,2.0361871E3,2.4175602E1,6.403064E0,3.1070839E1,3.326194E0,1.1378108E1,1.1833791E1,2.3468046E0,4.582473E0,1.0082061E0,8.513561E0,6.0292336E1,1.7318951E0,1.1024834E1,1.4535017E0,1.262972E0,3.9033182E0,2.0272284E1,1.0040656E0,5.3989983E0,1.7120382E0,2.9358799E1,6.7727966E0,4.6053114E0,2.1445904E0,2.4378827E0,6.4841175E0,2.0294435E0,1.0101764E0,2.8931417E0,1.8270223E0,1.8445261E1,4.281412E0,1.1175859E0,2.6931612E1,2.4271877E0,5.694071E0,1.0787262E0,2.386185E0,2.2191262E0],"tree_param":{"num_deleted":"0","num_feature":"19","num_nodes":"59","size_leaf_vector":"1"}},{"base_weights":[1.4677937E-3,-5.5271107E-1,6.175312E-1,-5.572516E-1,1.009722E-1,1.0718101E0,-3.2415277E-1,-5.601129E-2,-1.3412923E-1,8.791931E-1,-3.321946E-1,3.861711E-1,1.07973926E-1,5.0117713E-1,-4.3369788E-1,-5.288998E-2,7.5079995E-1,5.0233954E-1,1.0610034E-1,-5.1959552E-2,2.6333916E-1,-1.7951941E-1,7.0163476E-1,1.2585233E0,-5.190434E-2,1.2820049E-1,-4.6492097E-1,9.648064E-1,1.3062075E-1,9.147694E-2,2.753212E-2,-3.4552466E-2,6.928201E-2,5.1099646E-1,-4.9801018E-2,-3.0564174E-2,7.907487E-1,1.0675044E-1,1.4010571E0,1.0856207E-1,-4.751437E-1,1.0850693E-1,3.462888E-2,5.2767176E-2,-3.0829249E-2,-3.9444495E-2,4.8258457E-2,1.01259135E-1,-2.996522E-2,1.00395344E-1,2.9991148E-2,1.05146565E-1,1.5974781E-1,1.0349649E-1,-4.837167E-2],"categories":[],"categories_nodes":[],"categories_segments":[],"categories_sizes":[],"default_left":[0,0,0,0,0,0,0,0,0,0,0,0,0,0,0,0,0,0,0,0,0,0,0,0,0,0,0,0,0,0,0,0,0,0,0,0,0,0,0,0,0,0,0,0,0,0,0,0,0,0,0,0,0,0,0],"id":41,"left_children":[1,3,5,7,9,11,13,-1,15,17,19,21,-1,23,25,-1,27,29,-1,-1,31,33,35,37,-1,-1,39,41,43,-1,45,-1,-1,47,-1,-1,49,-1,51,-1,53,-1,-1,-1,-1,-1,-1,-1,-1,-1,-1,-1,-1,-1,-1],"loss_changes":[2.1621018E3,9.951233E0,1.2832766E3,3.9335938E0,8.329866E0,1.058252E1,8.852244E1,0E0,8.625929E0,6.997919E-2,1.9273604E0,4.5315833E0,0E0,8.944032E1,4.681569E1,0E0,8.9324856E-1,9.075562E-1,0E0,0E0,1.4171134E0,2.3733797E0,1.682632E0,3.0797577E-1,0E0,0E0,1.3959061E1,3.730774E-2,7.075849E-1,0E0,8.134954E-1,0E0,0E0,1.7407143E0,0E0,0E0,1.2714491E0,0E0,7.055435E-1,0E0,1.141748E1,0E0,0E0,0E0,0E0,0E0,0E0,0E0,0E0,0E0,0E0,0E0,0E0,0E0,0E0],"parents":[2147483647,0,0,1,1,2,2,3,3,4,4,5,5,6,6,8,8,9,9,10,10,11,11,13,13,14,14,16,16,17,17,20,20,21,21,22,22,23,23,26,26,27,27,28,28,30,30,33,33,36,36,38,38,40,40],"right_children":[2,4,6,8,10,12,14,-1,16,18,20,22,-1,24,26,-1,28,30,-1,-1,32,34,36,38,-1,-1,40,42,